Source_of_getting -0.18062 0.11673 0.43815 -0.37288 0.14835 0.056957 0.19958 0.19884 -0.13985 -1.8544 -0.090106 -0.24996 -0.16828 0.12863 -0.040759 -0.10559 -0.51038 0.28688 0.0048692 0.14492 -0.232 -0.13323 0.13052 0.13916 -0.21969 -0.074497 0.096671 0.20395 0.046656 0.50103 -0.61731 0.31415 -0.69658 0.53203 -0.11399 -0.15774 0.043733 0.23405 0.038081 0.095108 0.38121 -0.16384 0.091749 0.59204 0.16868 -0.14386 0.38809 0.32287 -0.068172 0.27696 0.44825 0.48007 0.084503 -0.20353 -0.041979 -0.072494 0.12663 0.29528 0.13402 0.37904 -0.34799 0.046718 0.49839 0.26733 -0.12155 0.058032 0.16537 -0.16051 -0.083014 0.71654 0.25169 0.22875 -0.051216 -0.10116 -0.46227 0.3493 0.39418 -0.21671 -0.21022 0.75322 0.13021 -0.0065447 -0.0841 0.031703 0.36442 -0.49477 -0.27384 -0.098557 0.089656 -0.56047 -0.6607 -0.23434 -0.59894 0.26544 0.46487 0.30639 -0.4396 -0.33695 0.62937 -0.55875 -0.067428 0.37386 0.27472 0.19904 0.40854 0.16577 0.031206 0.13583 -0.31146 0.72818 0.067181 -0.29525 0.2301 -0.34851 0.017795 0.26236 0.10367 -0.37337 0.88983 -0.38086 -0.132 0.099283 0.26631 -0.14072 -0.23266 -0.17733 0.1614 0.57606 -0.34977 -0.058172 0.21289 -0.053938 1.0172 -0.42566 -0.13481 0.14402 0.010791 0.16665 0.35477 -0.28477 0.045905 0.057022 0.17678 -0.29873 0.0072284 -0.01504 0.32907 -0.09076 -0.68919 0.35914 0.50776 0.19807 0.24504 0.31439 0.25191 -0.50341 0.26343 0.36163 0.38318 -0.31533 0.017455 -0.16353 0.36831 0.08948 0.35703 -0.13921 -0.11429 -0.15989 -0.51934 0.25689 0.041045 -0.35395 -0.34877 -0.0012501 0.20321 0.11456 0.25893 0.12232 -0.34553 0.039952 -0.21751 -0.012205 -0.18304 0.12272 0.090455 -0.012866 0.12169 -0.080878 0.20459 -0.088295 -0.069063 1.0276 -0.060238 0.07981 -0.066952 -0.13885 -0.040019 -0.74622 -0.36148 0.89357 -0.16525 -0.19065 0.19212 -0.3886 0.47242 0.30807 -0.55751 -0.026407 -0.23994 0.204 -0.047899 -0.30094 0.39683 0.095505 0.35081 0.27358 -0.025862 0.37994 0.0080331 0.11915 -0.25116 -0.182 0.090754 0.16157 0.12843 -0.12215 -0.4559 0.5386 0.081583 0.3649 -0.32882 -0.0050663 0.18147 -0.28542 0.29324 -0.096252 0.50218 0.028758 -0.024301 -0.0081622 -0.052067 0.076697 0.1386 -0.46105 -0.2083 0.28993 0.022734 -0.024591 -0.28074 -0.37767 0.058774 0.15428 -0.089471 -0.53421 0.096568 -0.40322 -0.32515 0.39133 -0.29712 0.15183 0.35391 -0.14256 -0.072536 -0.66975 -0.050522 -0.14255 0.39878 0.28741 -0.053915 -0.093136 0.21428 0.19222 -0.038547 -0.38405 -0.15358 0.36822 -1.9866 0.21204 0.59863 0.20475 0.065241 0.3251 0.015713 0.12528 0.39007 -0.48757 0.26363 -0.20112 0.34912 -0.1845 -0.42997 0.18482 0.24408 0.26783 0.27004 -0.016295 -0.53391 -0.011679 -0.41987 0.46251
Practice -0.207635 0.176014875 -0.065056125 0.0996311 -0.019630275 -0.11362 0.1023775 -0.2503 0.04304455 -0.391148125 -0.245744375 0.285888125 0.016528 0.000100375 0.108733875 0.249022625 0.2311286125 0.16643025 0.00667625 0.051476 0.11131375 -0.06305025 -0.0933348125 -0.0763968875 0.261505 0.0020105 0.223762875 -0.164259375 0.02039675 0.1533525 0.057802125 -0.238833625 0.22465775 -0.06605875 -0.17735625 0.317579125 -0.377584125 0.27402875 -0.007635125 -0.053613975 -0.027934125 0.10962335 -0.22487075 -0.46233625 0.250483125 0.095864 0.152578 0.161377 0.194974875 -0.038144375 0.0928659375 0.049619625 -0.06186425 0.0287661625 -0.0867425 0.08831625 -0.132839875 0.0729958 -0.0592495 0.19823575 -0.0880325 0.0498265 -0.065023375 0.020800275 -0.1465070625 -0.06131325 0.41927575 -0.297911625 0.10456625 0.0924494375 -0.068825924 0.235886375 -0.12219375 0.1441319425 -0.136132375 0.04534375 -0.041064375 0.47823375 -0.0382186375 -0.106037625 -0.1564285 -0.10087625 -0.173194 0.005841875 0.16162325 0.051961375 -0.12123175 0.080989375 0.018144375 0.12690925 0.030450375 0.313293 0.0140367875 -0.318393375 -0.052663125 -0.26243275 -0.28793625 0.037001375 0.106316125 -0.1755565375 -0.082183125 0.1449732125 -0.0875851125 -0.036583625 0.11664 0.016165625 -0.1980315 0.00606325 -0.138441125 -0.018488725 -0.0630125 -0.011967125 -0.377235 0.283965 -0.20833375 0.20459725 0.00927975 0.0653375 -0.021354625 0.189644075 0.046682125 -0.040928725 0.1085613125 0.044592625 0.17035575 -0.000864625 0.1409522125 -0.084587 -0.11288475 0.192169375 0.0488490375 0.00969325 -0.0354085 -0.326724125 0.1018357875 0.161613 -0.246522625 -0.30565625 0.0716705125 0.194502375 0.20032575 -0.228233625 0.0511695 -0.2029175 -0.0792963875 -0.1659459 0.071870625 0.2348415 0.308093875 0.29780375 -0.28058125 0.111238625 0.241041125 -0.180029625 0.146210875 -0.07753475 -0.062960375 0.025474875 0.055739 0.092319125 0.00152875 -0.121412125 -0.1443694125 -0.152389875 -0.0774640875 0.1327124875 -0.198945625 0.055480625 0.191100875 0.182793875 -0.062726 0.13785625 -0.1275895 0.007612125 -0.246076875 0.1669335 0.08872935 0.402932875 0.3090775 -0.156663625 0.169479 0.253625875 -0.0028355 0.009018125 -0.1258915 0.39082 0.25169625 0.05527825 -0.07860435 -0.253665375 0.024284125 -0.28998 0.03278325 0.019761 0.346253375 0.30842125 -0.12580575 -0.0116315 0.0208355 -0.28785125 0.3201075 0.2833436875 -0.208387375 -0.036882375 0.3311725 0.410188 0.11980125 0.109380875 -0.133024375 -0.097185875 -0.0997558625 0.0581003125 -0.11708375 -0.107039 -0.2444905 -0.324964875 0.2220531375 -0.1552937875 -0.2343955 -0.00055925 0.142846625 0.3321275 -0.244010375 0.13966335 -0.155482875 -0.12358125 0.0140245 -0.246503 -0.10641525 -0.014615625 0.146810625 -0.1557066 -0.072416125 -0.377246375 0.2003465 0.053507 -0.302061625 -0.178562625 -0.065237 0.0513133625 0.1543725 0.23568075 -0.056903125 0.035442375 -0.02200958375 -0.052116625 -0.33959625 0.286708625 0.127609875 -0.022233625 0.063676125 0.2996075 -0.096668125 -0.101942875 0.147053 -0.096143875 0.264475 -0.2016895 0.302929875 0.20800375 0.01190535 -0.019412625 0.0859368 -0.2228605 0.000970375 0.171003875 -0.429275375 -0.217574375 0.147745625 -0.13853925 -0.0506896875 0.0113743125 0.121313875 0.1636535 0.139845375 -0.1518035 -1.4314625 0.2280725 -0.00115125 -0.04753925 -0.166184875 -0.4597925 0.188931625 0.17881975 0.20070125 -0.096687875 -0.16981475 0.206704025 -0.164381125 0.0114363125 -0.06634175 -0.0926625125 -0.4101995 -0.16479375 -0.08318375 -0.02040625 0.08662175 0.122290375 0.158674625 -0.0015817875
Used_up -0.1272455 0.141173 -0.1036485 0.08595825 0.415361 0.17692125 0.2175105 -0.1915775 0.0224485 -0.9498275 0.2066925 -0.2882175 -0.345185 -0.3104675 -0.4347785 -0.15675 -0.17236225 -0.0502175 -0.132855 0.021825 0.00621875 -0.11779275 -0.108708 0.06661625 0.0245625 0.00030525 0.31366975 0.1764055 -0.2311175 0.4660035 0.31874675 -0.02321 0.169074 -0.1345225 -0.4454925 -0.297894 0.085119 0.252156325 0.2257475 0.137875 -0.028924125 -0.1154075 -0.1102225 -0.2449075 0.085265 0.1856965 0.289435 0.33591 0.0237475 0.10393216 0.164715 -0.1121025 0.032595025 0.0024575 0.136231 -0.11519675 0.5092175 -0.1095525 -0.00041825 0.202993 0.0578125 -0.1743375 0.2736325 0.187665 0.0729325 -0.1054135 -0.2556225 -0.22877 -0.03992775 -0.29445 0.25402875 -0.08563025 0.006938325 0.5159775 0.03383425 -0.11343425 0.28384175 0.0783925 0.1089275 0.0693997 -0.2258285 0.06433625 0.2680765 0.2771109 -0.1274348925 -0.13759475 -0.1475625 -0.0294335 0.0711525 0.071057 -0.0297125 0.14690075 -0.18443 -0.1397125 -0.10921825 0.023806 -0.233647 0.1266225 0.28394725 -0.1094675 -0.1093075 0.1536 -0.14841075 -0.2406345 -0.0242611 -0.0967455 0.0540335 0.13074 0.0035785 0.3194965 -0.0952965 -0.0237875 -0.2756125 -0.1552465 -0.25138575 -0.02809 0.1382925 0.0901795 0.267306 0.11429225 0.09009575 -0.197845 -0.358727 0.36062 0.05473975 0.110276 -0.05984775 -0.133335 0.07061625 0.1720035 0.386845 -0.120542 0.1916223 -0.244715 0.03206 0.059814 0.1924815 0.29937875 -0.14572125 0.133701 -0.04232075 -0.15173075 -0.21551725 0.373425 -0.1270625 0.4372215 0.2672875 0.2535275 -0.09040875 -0.2064425 0.15316125 -0.3617125 -0.3546925 0.1665475 0.40825475 -0.25016 0.033593 -0.30492975 -0.12887525 0.07883675 -0.08423425 -0.4366505 0.328881 -0.051525475 0.2055815 -0.25922875 -0.190165 -0.44097 -0.11314975 -0.017405 0.1831365 0.638537275 -0.42218525 -0.09635175 -0.25621 0.169977 -0.077445 0.1560145 0.2034531 0.46502645 0.10590685 0.0283936 -0.2071525 -0.1188725 0.1176545 0.241571 0.137405 -0.034423 0.11569775 -0.2631325 -0.1701835 0.31736175 0.157954 -0.3394475 -0.02866825 -0.185138275 -0.0974275 0.079162 0.06911375 0.13705775 0.44864025 -0.04316 0.14032 0.169385 0.1355925 -0.0538225 -0.2391075 -0.14861 0.2088575 -0.1588425 -0.12869525 0.03214625 -0.13400725 0.09866075 0.20897475 0.37217175 0.1376975 0.01432 0.262137625 -0.01571775 0.465545 -0.09555425 -0.36863925 -0.0985975 0.2135465 0.1927689 -0.22033075 -0.2027175 -0.2447325 -0.030615 0.00740975 0.030825 0.16805225 -0.19443825 0.03434275 -0.1329895 0.13193925 0.1265885 -0.222098 -0.1512485 -0.0340875 0.1796735 0.384005 0.0092275 -0.34467425 -0.30580275 0.40166 -0.0035 0.1434645 0.0701725 0.0506865 -0.08969575 0.22831 -0.3832105 0.41598 -0.0913325 -0.29271575 0.13035825 -0.0530555 0.3691325 0.1221975 0.2713305 -0.13465025 0.06903225 0.42605525 0.19258525 0.0107975 -0.473865 -0.113237 -0.025560475 -0.411405 -0.202932 -0.1466345 0.043375 0.00911375 0.10409875 -1.4089875 0.0222115 0.16196425 0.22805975 -0.20615625 -0.1203925 0.13483925 0.057475 0.11002475 0.1394525 -0.2478875 0.36236275 -0.04361825 -0.2161355 -0.1487825 0.01608675 -0.081693 0.25271325 -0.0676275 0.0425775 0.20596225 -0.311098 -0.216166 -0.204425
Planting -0.00499 0.426565 -0.27746 -0.076505 -0.385235 0.151565 0.0697125 0.507878 0.446635 -0.71387 0.297465 -0.09902 -0.0145035 0.02713 0.234379 0.533845 0.009425 0.450415 0.02321 0.51397 -0.075425 -0.31613 -0.291125 -0.20321 -0.21528 0.0901425 -0.1102445 -0.067211 0.10226 0.371875 0.181151 0.05492 -0.28944 0.04096 0.2547405 0.330055 -0.214248 0.1076445 -0.1585825 -0.34973 -0.496075 0.240731 0.169905 0.483795 -0.31615 -0.66556 0.588195 0.1496025 -0.1882405 0.121435 0.251645 0.32545 -0.04786 -0.777045 -0.50655 0.000205 0.611205 -0.426409 0.087795 0.12751 0.02192 0.1354455 0.174425 -0.49121 -0.583805 0.180065 0.0895265 0.185115 0.232319 0.2514 0.2416629 0.1130795 0.227351 -0.0385 -0.318025 0.160141 -0.473825 -0.271075 -0.187995 0.22925 -0.266668 -0.18928545 0.044525 0.1884915 0.09281 -0.188815 0.296585 -0.1700185 0.101925 0.0964455 0.04533 -0.5067 0.55303 -0.25059 -0.05873 -0.1746415 -0.05271866 -0.09052 -0.22971 -0.09244 -0.1013965 -0.202785 -0.349515 0.00731 0.0013507965 0.020485 0.079315 0.04101 0.006805 0.503265 0.35418 -0.137674 -0.3783 -0.23919 -0.020295 0.539205 0.057465 0.70889 0.384535 0.152765 -0.561525 -0.310105 0.45045 0.270736 -0.20621 0.05653 0.413925 0.73143 0.44014 0.133985 0.69293 0.485219 0.060755 0.150914 -0.284955 -0.149331 -0.332575 -0.262115 0.40409 -0.14473 0.08106 -0.00867 0.44791 -0.124675 -0.0493235 0.37361 0.392065 -0.27644 -0.12008 -0.29169 -0.07948 -0.091563 -0.0987025 -0.014908 0.14012 -0.052375 -0.1917255 -0.02399 -0.113997 0.36894 0.10906 -0.0457885 0.2446645 0.4203 0.23905 0.137035 0.04503 0.00426 -0.2375745 -0.44181 -0.09638 -0.1285895 0.30599 -0.64732 0.0002095 0.366905 -0.019255 0.006815 0.095875 0.258965 -0.2087285 -0.07705 -0.45674 -0.114242 -0.08158 0.180888 0.051625 0.084385 0.83486 0.079515 -0.488575 0.2586685 -0.33709 0.292226 -0.048455 0.2872675 0.50736 -0.411415 -0.353155 0.328485 0.0630275 0.45636 0.117083 0.01188 0.0091835 -0.0507635 -0.0423865 -0.03298 -0.0443185 -5.5e-05 0.40928688 -0.46184 0.4666355 -0.273205 0.355961 -0.23929 0.11611 0.487485 0.075132 0.0573745 -0.216695 -0.105619 -0.57357 0.1702115 -0.171585 -0.065195 -0.065947 0.27258 0.054075 0.009131 0.554415 0.11981 0.1849335 0.256243 0.129675 -0.17276 0.045615 -0.340785 -0.22887 -0.275506 0.03485 -0.167455 -0.1553225 -0.04011 -0.51503 -0.334605 0.751605 0.11907 0.18348375 -0.38684 0.492562 0.484543 -0.3358 0.32617 0.852505 0.183825 0.1668925 0.416755 0.29087 -0.42226 0.55112 0.1931215 -0.0505255 -0.047555 0.076411 0.075871 -0.36948 0.11194 0.43964 0.15339 0.2554625 0.150692 -0.117295 0.183835 -0.147202 -0.086795 -0.67546 -0.0812 -0.145585 -0.032235 -0.30348 0.0396825 -0.59708 -0.0313705 -0.170977 0.400505 0.623805 -0.04959 0.2386135 -0.03323 0.182067 -0.45847 0.46915 -0.500575 0.49779 0.087625 -0.0321785 -0.44018 0.42975 0.43172
Cause_to_rot 0.52459 -0.52897 0.077908 0.041079 -0.32245 0.023296 0.55935 0.64908 0.87888 -0.45651 0.10853 -0.45224 -0.77084 -0.46922 -0.12132 -0.71997 0.11176 -0.098185 0.70678 0.6475 -0.32345 -0.40043 0.43401 -1.0262 -0.14508 -0.31069 0.54634 0.36608 -0.17461 0.72583 -0.25688 0.46614 -0.1377 -0.61692 0.074716 -0.083821 0.29216 0.15907 -0.57568 0.081191 0.71528 0.041104 -0.14433 -0.32977 0.24036 -0.17435 0.18434 0.042367 -0.47863 -0.48453 0.032871 -0.086103 -0.2829 -0.83438 0.448 -0.22211 -0.5 -0.10804 -0.38921 0.23017 0.53076 -0.42508 0.3672 0.39952 -0.27816 -0.055578 0.40792 0.29476 0.086915 0.25258 0.18939 -0.30758 0.74242 0.36246 -0.18725 -0.66347 -0.030492 -0.52924 -0.33675 -0.18996 -0.11939 0.12164 0.32787 -0.073532 -0.89588 0.51644 0.076798 -0.04632 0.6483 -0.099629 -0.36882 -0.086688 0.43204 -0.5985 0.16464 -0.087233 -0.053111 0.33286 0.068157 -0.028346 0.080018 -0.033812 -0.81797 -0.11615 -0.50134 -0.2522 -0.02048 0.0061105 -0.3855 0.15032 -0.4327 0.31739 0.2122 -0.16762 0.31815 -0.014231 -0.4101 -0.23753 -0.43049 -0.03709 -0.32458 -1.0184 0.54272 0.92591 -0.24384 0.44532 -0.019372 0.65502 0.10252 0.16439 0.60505 0.59965 0.7561 0.30872 -0.43907 -0.23713 0.20099 1.1561 -0.63196 -0.21845 0.1046 0.41982 -0.016356 0.14168 0.85004 -0.09044 0.18723 -0.21682 -0.26195 0.61954 -0.69571 0.41566 -0.35812 0.15801 -0.057784 -0.12453 0.17551 -0.32548 0.1873 0.35191 -0.2117 0.10676 0.25362 -0.42618 0.44564 0.079135 0.045996 -0.17328 0.49635 -0.028562 0.16985 0.029508 0.47147 -0.060868 0.16787 0.12867 0.28702 0.25395 0.08599 -0.53932 -0.46609 0.25667 0.3796 -0.88608 0.0669 -0.16163 0.56534 -0.14325 0.43295 -0.13703 -0.15652 0.30336 0.59681 0.56396 0.60207 -0.04878 0.13428 0.20628 0.23576 0.2525 -0.17146 0.30506 0.05729 0.14772 -0.26045 -0.5396 -0.27708 0.035938 -0.31874 -0.23226 -0.11896 -0.41638 -0.48497 -0.20795 0.4538 0.20727 0.27256 0.19642 0.3918 -0.20173 0.13788 -1.0252 -0.41622 0.024889 -0.47996 -0.22472 0.21534 0.51644 0.17559 -0.086213 0.81678 -0.091406 0.32782 0.098997 -0.23924 0.18549 0.16312 0.093707 0.3224 -0.31176 -0.1783 -0.83607 -0.21176 -0.8512 -0.54374 0.62271 1.0082 0.043884 -0.14522 -0.51598 0.45017 0.48767 -0.4843 -0.12171 1.0465 0.8154 -0.36167 -0.58754 0.5291 -0.31848 -0.041979 -0.4468 0.041561 0.11261 0.14426 0.051497 -0.23462 -0.13841 -0.22914 -0.018143 0.34548 -0.62664 -0.15558 0.096724 -0.48498 -0.21025 0.42608 -0.041131 -0.32793 0.26203 -0.31015 -0.61159 -0.41212 0.13191 -0.25164 0.91419 0.27316 -0.50824 0.071311 0.15598 0.017496 0.24974 -0.26239 0.22133 -0.0034244 0.056929 0.29693 0.024517 0.33368 0.45334
Preventing 0.301662769231 0.134798692308 0.0483563076923 0.0905106923077 -0.1481815 0.0892835384615 0.163448384615 -0.000977969230769 0.0597316923077 -0.693663076923 -0.161252384615 0.118911076923 -0.0187513076923 -0.132726307692 -0.0619134615385 0.0864143461538 0.0172162307692 -0.0892704615385 -0.120846769231 -0.147570769231 0.162812692308 -0.152845307692 0.0276756923077 -0.104476892308 -0.191467276923 0.0374436153846 0.167759192308 -0.00703476923077 -0.0693340769231 -0.0522743846154 0.0514217692308 -0.00293569230769 0.206075384615 -0.301142076923 -0.225469307692 -0.0243081538462 -0.142430461538 -0.167029 -0.0411635723077 -0.0227193846154 -0.125723615385 0.0589676923077 0.135637184615 -0.198035923077 -0.104111715385 0.0365157692308 0.00897992307692 0.0966864615385 -0.0725637692308 -0.0919146923077 0.0904395384615 0.00578246153846 0.0440932307692 -0.289216538462 -0.157625538462 0.0880869230769 -0.267237315623 -0.0205943769231 -0.0399488461538 0.155757769231 0.0445873461538 -0.126207076923 -0.154556923077 0.221397807692 -0.113150691538 0.173599076923 0.00665791538462 -0.105514430769 0.213765384615 0.00111607692308 0.145858584615 0.0204812230769 0.0993900769231 -0.0163133846154 0.190632153846 0.00499961538462 -0.120249307692 0.305254153846 -0.0972769461538 -0.219792692308 0.159251430769 -0.0924818461538 0.0206192307692 0.201531769231 -0.0445228076923 0.0426358846154 -0.169256692308 0.0936415384615 -0.125760461538 0.220223230769 -0.326612953846 0.101957615385 0.0615155384615 0.0193006153846 0.0715502307692 -0.0267641538462 -0.0179228461538 0.0841981307692 0.110054007692 -0.0404305384615 0.170794461538 0.0418299538462 -0.331283946154 -0.0410417384615 -0.00521353846154 0.0951197692308 -0.344336223077 -0.135945461538 0.135877448462 0.0237328153846 0.00834953846154 -0.0242576153846 -0.373680076923 -0.127313307692 0.192034392308 0.105876846154 0.263681730769 0.275185425385 -0.107763153846 0.0130139461538 0.0754789230769 -0.00212530769231 0.124078661538 -0.266938076923 -0.136390230769 -0.288008923077 0.0794712307692 0.045672 0.241037384615 -0.0469363846154 0.430323846154 0.0755721846154 0.121102307692 -0.0617577384615 0.104714707692 0.0800139230769 0.00545569230769 0.0603143846154 -0.0730680769231 0.141888076923 -0.112229538462 -0.0987748461538 -0.122117076923 0.186683 -0.174219692308 0.0627855384615 -0.131700538462 -0.0803506153846 0.275473615385 -0.00890759230769 -0.112216 -0.0467050615385 0.0528499230769 0.0201494153846 -0.00470615384615 -0.0139617692308 0.120665 0.161562307692 -0.259429307692 0.0290885384615 0.0887651230769 0.0498164 -0.165655407692 -0.130907307692 0.0953564615385 0.0222964615385 0.138560461538 0.0383323076923 0.106971230769 -0.0539956923077 0.0505328461538 0.0674323076923 0.0792624615385 -0.0497762307692 -0.237434615385 -0.184449076923 0.0434832307692 0.121088923077 -0.0318957538462 -0.0804884615385 -0.164663015385 -0.355938076923 -0.0366497076923 -0.00520984615385 -0.276741153846 0.275056076923 0.157662038462 -0.231200523077 0.174943076923 -0.288198307692 -0.160791692308 -0.0766638923077 -0.0735842076923 0.0537833230769 0.368799615385 -0.105825615385 0.215462076923 -0.280731769231 0.223114 0.0412842307692 0.00811361538462 0.241355784615 -0.0509972307692 0.00928026923077 -0.126055384615 -0.112571646154 0.064005 -0.342371538462 0.0643203846154 0.0927887692308 -0.293040153846 -0.0208309230769 0.112526692308 0.338973846154 -0.134961307692 -0.185171153846 0.141575923077 0.103852646154 -0.0142892307692 0.170934692308 -0.03187 -0.185434384615 -0.0768375384615 -0.167115506923 -0.0178585384615 -0.294863076923 0.153008307692 0.0340136923077 0.266182153846 -0.0648015384615 0.0284538461538 0.294468384615 0.160291366154 -0.00836965384615 -0.161007307692 -0.186636526154 -0.0487998361538 0.0872765615385 0.108702692308 -0.208291846154 -0.0697562307692 0.206259923077 0.002321 0.0363675384615 -0.385502923077 0.271236 0.137485615385 0.0271268538462 -0.00506369230769 -0.132222076923 -0.0631062384615 -0.067426 0.0100626615385 0.0267447538462 0.0933127692308 0.0448389 -0.159596538462 -0.0539977692308 0.0559964615385 0.116013538462 0.0951397692308 -0.153993615385 -0.117897823077 0.188241730769 -0.054585 0.102147153846 -0.0217851230769 -0.108811461538 -0.0823836153846 -0.018399 0.247946846154 0.00170961538462 -0.0942794615385 0.222643846154 -0.0175168461538 -0.131926323077 -1.14378692308 0.147140469231 0.390017692308 0.192354538462 0.0293512307692 -0.0731638461538 0.128601846154 0.183661923077 0.0600150769231 -0.360797769231 0.191011076923 -0.0100099230769 -0.0917602307692 0.0240826153846 -0.146502692308 -0.266017738462 0.199125846154 -0.00526069230769 0.249130153846 -0.210727830769 0.0287931538462 -0.0158451538462 0.114153076923 -0.102858
Continued_state_of_affairs -0.47559 0.073264 0.17778 -0.095384 0.073815 -0.010946 0.065503 0.10853 0.11385 -1.7958 0.2157 -0.045265 0.0040254 0.12075 0.26377 -0.12352 -0.43473 0.12825 0.037126 -0.17849 0.26233 0.545 0.58349 0.083708 -0.41678 0.11645 0.10842 -0.097284 -0.024195 0.34568 0.25348 0.44106 -0.18652 0.05734 -0.89835 0.011377 -0.1302 -0.2604 0.017281 0.066915 0.17421 -0.22487 0.078923 0.072113 0.25907 -0.20984 0.25624 -0.29584 -0.23208 -0.024114 0.17523 -0.26673 0.1338 -0.16862 -0.018564 0.29345 -0.22279 0.34725 0.18758 0.34885 0.031686 0.1643 0.38553 0.6107 -0.13103 -0.32082 0.31551 -0.091121 -0.038042 -0.132 -0.14692 0.13858 -0.33389 0.20599 0.0067273 -0.19686 0.26834 0.11843 -0.45838 0.2362 -0.24818 -0.28746 0.016482 0.15673 0.092151 0.092043 0.064315 0.21941 0.085635 0.45256 -0.11189 0.19075 -0.29636 -0.034101 -0.054504 0.073849 -0.3843 -0.227 -0.16351 -0.33335 0.074939 -0.15091 -0.22887 -0.1154 -0.38732 0.62056 0.52324 -0.12718 -0.38087 0.13724 -0.19499 -0.45881 -0.36975 -0.35698 0.061013 0.01944 -0.46969 0.28883 0.19649 -0.11714 -0.27876 -0.21192 0.13215 0.46785 -0.16441 -0.19178 -0.19323 0.16247 0.089195 0.024093 0.15682 0.22959 0.41657 -0.30349 -0.14048 -0.030298 -0.25005 0.19078 0.4066 0.079723 0.0046525 0.20067 0.034275 0.29523 -0.32178 -0.2119 0.038979 0.0036261 -0.29794 0.0063997 -0.21551 -0.403 -0.14592 0.1785 0.432 0.12782 -0.1568 -0.26175 -0.0026782 0.39994 0.25655 -0.14121 0.097044 -0.17853 -0.32429 0.16648 0.059549 -0.15807 -0.45731 0.286 0.39578 0.11144 -0.65401 -0.18002 0.086917 0.084062 -0.17337 0.017169 -0.095769 0.51971 0.029127 0.38876 0.21647 -0.12581 0.55578 -0.056769 0.20478 -0.44785 -0.14791 0.32886 -0.014943 0.32309 -0.051549 0.0046339 -0.0056601 -0.67771 -0.32434 0.31097 -0.22679 -0.28509 1.1665 0.1209 0.077228 -0.14626 0.012579 -0.34165 -0.0072016 -0.32164 -0.087521 -0.40228 0.24604 -0.14066 0.14709 -0.20547 0.11704 -0.014865 -0.53158 0.29183 -0.30122 0.13833 0.26027 -0.47322 0.20614 0.0079854 0.018899 0.13841 0.053306 -0.10133 -0.42715 -0.25421 0.098847 -0.28689 0.28485 0.39401 -0.049808 0.013944 0.16392 0.18932 -0.36604 0.29263 0.04623 0.083575 0.74226 0.33547 -0.57404 -0.41165 0.54412 0.21851 -0.090363 0.2319 -0.028044 0.038993 -0.051299 0.1093 0.14915 0.046163 -0.28605 -0.10671 -0.17258 -0.16033 0.14327 0.11928 0.11244 -0.010397 -0.17361 0.3518 -0.083673 -0.30459 -0.11977 0.083505 -0.21614 0.1095 -0.12562 0.013308 0.12892 0.31731 -2.1746 -0.27215 0.1136 0.15965 0.27535 0.34392 -0.086399 0.22509 0.048193 -0.058734 -0.23789 0.54658 -0.21501 -0.25778 -0.13427 0.048171 0.34554 0.24311 -0.13283 -0.1083 0.068882 -0.39841 -0.12674 -0.019151
Expansion -0.190718214286 -0.00103914285714 -0.167224285714 0.100760214286 -0.0276558185714 0.186828428571 0.136353142857 0.0767242142857 0.110375 -0.808779285714 -0.18013925 0.054433 -0.186225671429 -0.101768285714 0.0419167857143 -0.00625107142857 0.0613439428571 0.0604036428571 0.0460308285714 0.0572455714286 -0.0282876428571 -0.225924928571 -0.282491692857 0.332941085714 -0.107837928571 0.00169592857143 0.162178692857 -0.1438255 0.0553707857143 0.130401714286 0.110993428571 0.0888437142857 -0.0328776428571 -0.059345 -0.208895 0.303763571429 -0.211713285714 -0.0615299285714 0.0213713857143 0.261310357143 -0.100108071429 0.1210755 -0.322541857143 -0.109521357143 -0.00140528571429 -0.0410545714286 -0.174234642857 0.2524595 0.0655650714286 -0.0602652142857 0.191646142857 -0.0432637857143 -0.159015285714 -0.305271357143 0.109644071429 -0.0357026071429 -0.00562857142857 0.149599135714 0.111694142857 0.232600214286 0.0895787607143 -0.283266807143 -0.0573815 -0.0675737857143 0.139195357143 0.174384864286 0.0449520571429 0.214095142857 0.0614376428571 0.206144571429 0.277415142857 0.226420857143 0.20773515 0.365039285714 0.361994785714 -0.274818142857 -0.189179871429 -0.0452699285714 -0.188454285714 -0.0440949285714 -0.175718714286 -0.0495967642857 0.0278275 -0.119733214286 0.103387785714 0.136870785714 -0.194515785714 -0.0805667 -0.0571997214286 -0.110461214286 0.0368201428571 0.01211855 -0.268001164286 -0.362485714286 -0.360214642857 -0.0133116428571 -0.275898407143 0.252468164286 -0.0308535857143 -0.158179857143 -0.237343214286 0.0884948357143 -0.506523571429 -0.183804571429 -0.0738895 -0.0754558714286 0.0313857142857 0.0784936857143 0.0354424285714 0.126070642857 -0.0704009285714 0.0242559285714 -0.278015571429 -0.159113071429 -0.133070714286 0.0920883571429 0.283196428571 0.139915642857 0.110352428571 0.0796557857143 0.148098714286 -0.353132364286 0.30973435 0.434998071429 0.290760642857 0.222893771429 0.1887345 0.0592489285714 0.147051585714 -0.138745142857 0.19763 0.226950285714 0.0953428571429 0.313601357143 0.116096571429 0.141580714286 0.123481571429 -0.169613214286 -0.11995695 0.140622928571 0.00755814285714 -0.106235785714 -0.122527928571 0.0187312142857 -0.00976564285714 -0.0176047571429 -0.117444857143 0.0227323571429 -0.0401499142857 0.250916357143 -0.157223217143 0.03856065 0.208961978571 -0.148324721429 0.203772857143 0.02001415 -0.393136571429 0.372615857143 -0.398319571429 -0.0419312857143 -0.0969853571429 0.286713071429 0.030211 0.0510664285714 0.114056571429 -0.279531928571 -0.197341071429 0.176156 0.0369571428571 0.261093785714 0.238264142857 0.255968135714 0.0934795714286 -0.147226 -0.251918857143 -0.148337214286 -0.124835428571 0.0664922142857 0.00641157142857 0.0910146428571 0.0105443571429 -0.210295357143 -0.0102744642857 0.0535185 0.2353425 0.0752903571429 0.185116 0.0259815714286 -0.178242 0.0644349285714 -0.117557857143 0.457394285714 0.0595060071429 -0.1215605 -0.0271677142857 0.0151988642857 0.159690492857 0.105840214286 0.239655357143 0.0689368571429 0.149523428571 -0.127114428571 0.1315527 0.210175385714 -0.0496837857143 0.0361507142857 -0.01756835 0.171911142857 -0.167425571429 -0.00967207142857 0.0382064285714 -0.101972285714 0.139505292857 -0.0524286428571 0.0133549142857 0.2075925 0.154491357143 0.267475571429 0.08505075 -0.0995419428571 0.242091357143 0.0190313571429 -0.231073121429 -0.0688832857143 -0.144165385714 -0.134012785714 -0.217154357143 0.105509042857 -0.195400714286 -0.113152142857 0.159200071429 0.0803168 -0.022358 -0.0598910785714 -0.20611355 -0.241170785714 0.227847714286 -0.130343607143 -0.0849235714286 -0.162997285714 0.190497628571 -0.0760638857143 0.239649857143 -0.125021428571 -0.388481 -0.0195592142857 0.279902985714 -0.0487061428571 -0.0398500714286 -0.196059857143 -0.184366642857 0.09607225 0.460627142857 -0.0937535714286 -0.0815712642857 -0.1486775 -0.0603817142857 0.213230285714 -0.00853285714286 0.286643928571 0.409361407143 0.0348833285714 -0.0329513571429 0.173751614286 0.1131942 0.0852365714286 0.0284831428571 0.0982143571429 -0.161409071429 -0.166703464286 0.363717814286 0.295547285714 -0.00859071428571 -0.0062195 0.163623571429 -0.159282642857 -0.601923428571 0.0551151428571 0.0662117235714 0.168483857143 -0.000582614285714 0.214537214286 0.154520571429 0.228821714286 0.04835415 -0.0578095714286 0.0846725714286 0.0455332285714 -0.201518428571 0.0705079357143 -0.0839597142857 0.0463059857143 -0.0576513571429 -0.103038928571 0.0570190142857 0.122049142857 -0.118017642857 -0.215646428571 0.106937571429 -0.0946025
Progress -0.1434081125 -0.18340025 -0.0056235 -0.28666 -0.116842875 0.1569458125 0.068733375 0.116013375 0.149970625 -1.059581 -0.0215530375 -0.184177375 -0.103948 -0.24204325 -0.076035875 -0.1052971125 -0.14632375 -0.1899315 -0.088644625 -0.0659148875 -0.330242875 0.263253875 -0.279704125 0.22334 -0.1265849 0.009243625 0.22539625 -0.043991375 -0.07737583875 0.13381625 0.230590475 0.06406325 -0.12269575 0.12843825 -0.18632375 0.48153375 -0.090508375 0.20503725 0.20533 -0.317046375 0.0204317625 0.22482175 -0.3240212625 -0.296576375 0.0716545 -0.019663125 -0.04541625 0.31309825 -0.128087125 -0.131187625 0.13626875 -0.063978375 -0.147075625 -0.2772575 -0.2338825 0.252189125 0.12540025 -0.13579675 -0.00623025 0.17269625 0.2132545 -0.04548775 0.151736875 -0.2053805 -0.229491 0.3556975 0.277668 0.254354125 -0.150465125 0.0062077375 0.1212485 -0.02612775 0.0382116175 0.258126875 -0.0170225 -0.155869625 -0.251921875 -0.068428 0.122187375 0.037190375 -0.17204275 -0.022018875 0.013293125 -0.006886875 -0.022117 0.108346375 -0.073726125 -0.280464125 0.2133615 -0.22257125 -0.115396375 -0.020137625 -0.291912625 0.194977125 0.093238875 -0.174857625 -0.056434375 0.30644925 0.117423 -0.139016875 -0.10763225 -6.9375e-05 -0.28756075 -0.160861375 0.039515875 0.13492125 0.030887625 0.0365638075 0.075070375 -0.2078280125 0.1284098175 -0.02749625 -0.11745875 -0.0092794875 -0.12384525 0.007600975 0.161285375 0.1619115375 -0.034660875 0.3214624375 0.013007875 -0.068216125 0.1425145 0.098629 -0.049093625 0.028678 -0.001332375 -0.0281125 0.19487825 0.07365175 0.0246475 -0.2549417 0.206383 0.075520625 -0.18958725 -0.02793078 -0.097191125 -0.1696925 0.14458875 0.3446275 0.178964275 -0.259807125 -0.016885 -0.2353575 0.338999375 -0.0135695 -0.26063 0.2677486 -0.37402875 0.0016741 -0.23472375 -0.0702533375 0.02285225 0.00804875 -0.05647025 -0.141373375 -0.0614404875 0.18196175 -0.240116 -0.07550025 -0.13935975 0.01625 -0.255081875 -0.351372 -0.02481375 -0.166742 -0.0398831125 0.007696175 -0.2819 0.1626085 0.312446625 -0.116787375 -0.45874875 -0.171973875 0.016469125 -0.308691375 -0.011224375 -0.1666125 -0.177403 0.28246775 -0.144117875 -0.3273865 -0.0551725 -0.245436 -0.079268275 0.01997025 -0.1528105 0.024503875 -0.31699 -0.109774875 -0.025813875 0.36083075 0.206459075 0.005287875 0.0529785 0.29148425 0.1574555 0.2548405 0.016807075 -0.180803375 0.19003275 -0.147919625 -0.0023469375 0.11273225 -0.092205375 -0.211450375 -0.2387299 -0.0020741125 0.108096875 0.12376275 0.2791724375 -0.163872 -0.09646 0.008920375 0.087057125 -0.102174625 -0.018318625 0.3067077 0.4229365 -0.04639725 -0.22194873625 -0.192367375 -0.344397 0.050335625 -0.2199165 -0.21861875 -0.020248125 0.023284625 -0.069636625 0.1155523625 0.047308 0.2126805 0.000198525 0.0723090625 -0.095765125 0.0429035 -0.11197865 -0.07233025 0.011624875 -0.1338605 0.19475125 -0.0462347125 0.13094875 0.087187 -0.80519875 0.063000875 0.1430805 -0.098144375 -0.1446321875 0.116491375 -0.031114 0.01040875 -0.154530375 -0.026425125 0.211445625 -0.069711375 0.1258075 -0.018921 0.2407875 0.23362125 0.171705 -0.017929125 0.163841125 0.0050305125 0.2438971875 -0.0570320625 -0.3292175 -0.144138625 0.068567125 0.227166875 0.15927775 -0.1065325 0.048987875 -0.108238375 0.235743375 0.1307867875 -0.82911625 0.130767 0.37422 -0.410305125 -0.06948025 -0.2192523825 0.188701875 0.2818975 0.0041309125 -0.246739 0.109659125 0.1710423 0.1178812025 -0.14882975 -0.01252675 -0.130241 0.09445275 -0.013707125 0.153245625 0.5949825 -0.150363125 -0.0467783625 0.083444625 -0.3727275
Cause_to_fragment -0.00656484210526 0.112690684211 -0.327534789474 0.0870336842105 -0.0817425263158 -0.0576930526316 -0.0165952736842 -0.0859921578947 0.190232252632 -0.274384526316 -0.122043421053 -0.107448147368 -0.104184 -0.232826473684 0.164917421053 0.0159690526316 -0.109687392105 0.218137989474 -0.0102824210526 0.165203684211 0.0816080842105 0.126469 -0.00741419 -0.0203082631579 0.131104736842 -0.000124210526316 -0.0180648157895 -0.0701673157895 -0.0897801052632 -0.144824263158 -0.0144975263158 0.00900390526316 0.0581620210526 0.0664352894737 -0.0403628157895 0.0328802631579 -0.276634515789 0.239761332105 0.0907891210526 0.186289052632 0.124029684211 0.108747157895 -0.0751196842105 -0.117467 0.203937105263 0.0717603157895 -0.0671741684211 -0.160859526316 -0.130655842105 0.0231236315789 0.156787684211 0.0418119736842 -0.00867473684211 -0.141317947368 0.0747526315789 0.00458073684211 -0.275751421053 0.0496384210526 -0.274297105263 0.0635236315789 -0.0769476842105 0.145756589474 -0.164718263158 0.124634736842 0.187239947368 0.0267815105263 0.0190761578947 0.102188752632 0.244681684211 0.0662609473684 0.0693536684211 -0.178023526316 -0.0399355263158 0.253909789474 0.0397642105263 -0.0548452631579 -0.164735947368 -0.298166368421 -0.198247473684 -0.0296230526316 0.0293500894737 -0.176561578947 0.108828526316 -0.193637105263 0.0256563157895 0.0603755131579 -0.0430462 0.128640526316 -0.112863684211 -0.0161846368421 -0.170349631579 0.00503467368421 -0.0284819473684 -0.380228789474 0.131173473684 0.108850263158 9.52105263158e-05 0.0809031052632 0.0482742 0.0666824736842 0.00666175263158 0.0330495789474 -0.165235894737 0.0711878947368 0.125026 0.0853771842105 -0.0148159473684 -0.0688138947368 -0.0157463368421 0.0263062631579 -0.0741901052632 0.0896253684211 -0.117124578947 -0.0719542631579 -0.118524789474 0.0834528421053 -0.242005684211 0.00647884210526 0.0884013368421 -0.207884105263 -0.0977063157895 -0.265948463158 0.00333126842105 0.146097189474 -0.00822810526316 -0.0166655789474 0.159331726316 0.188654263158 0.0496760736842 0.11179 0.0526195263158 0.194404473684 -0.0512900526316 0.219998263158 0.183743952632 -0.0348638421053 0.153165684211 -0.0988292631579 0.0816404210526 -0.171220473684 -0.0277261052632 0.105424478947 -0.214468315789 0.192203315789 -0.0651642526316 -0.008841 -0.0520625473684 0.185517342105 0.0145616315789 0.0295558421053 -0.297640594737 -0.141011736842 -0.00520094736842 -0.189038884737 0.224481473684 0.0962201052632 0.103136789474 0.0605554052632 0.137774642105 0.109693947368 -0.085005 -0.0625100684211 -0.0267312631579 -0.108534078947 0.0573441105263 0.208391089474 0.0141144736842 0.213037789474 -0.0664603894737 -0.114105789474 -0.0525368947368 0.0386665263158 0.0899993157895 -0.116251121053 0.0483816 -0.0393527894737 0.0545048263158 0.249630047368 0.184497526316 -0.173140736842 0.309556905263 -0.142205263158 0.1037011 -0.125816157895 0.00667489473684 -0.0954450526316 0.148970842105 0.167672157895 -0.0382734210526 0.102442784211 -0.0252267894737 0.0181638789474 -0.0442582631579 0.0555785789474 0.238026052632 0.266534105263 -0.0588229894737 -0.0237527368421 0.15027 0.154265631579 0.323337526316 0.120820052632 0.0747871052632 0.105029357895 -0.257086052632 0.0213006315789 0.173193526316 0.0380462631579 -0.251249789474 0.223725368421 0.0960092105263 0.0196019315789 0.106757105263 0.206057384211 -0.235193373684 0.0521067789474 0.363725157895 0.00664952631579 0.0250417 0.229948157895 -0.251688873684 0.0249872105263 -0.0679112631579 0.0356032631579 -0.0718462105263 0.00667754210526 0.0396627368421 -0.0243581578947 -0.120866784211 -0.0370740526316 0.184122052632 -0.1643421 -0.108104947368 -0.203744947368 -0.0130403157895 -0.0619786578947 0.0624629473684 -0.244798373684 -0.0128311578947 -0.273336789474 0.178608684211 -0.142258505263 -0.106551631579 -0.109962773684 -0.208474 -0.108569894737 0.100372621053 0.0617870526316 -0.158138368421 -0.203183842105 0.0246451578947 0.0923392315789 0.157429210526 -0.202393042105 -0.011886 0.0119136842105 0.0847866789474 -0.187676473684 -0.00937078947368 0.0396268368421 0.211524947368 -0.100460947368 -0.138375705263 0.154476157895 0.110102257895 0.0712491578947 -0.262424684211 0.199289947368 -0.0378583684211 0.008597 -0.0999944210526 0.020742 -0.0115332263158 0.105546894737 -0.0652992105263 -0.218361052632 -0.228526631579 0.0351114736842 -0.248294210526 -0.103449894737 0.0796852473684 0.101603578947 0.0456079210526 0.226696894737 -0.113951408421 -0.111256263158 -0.088518 0.0997633684211 0.182993842105 -0.0260127368421 -0.00538842105263 -0.171479526316 0.164082 -0.077642 -0.00171755789474 -0.121735421053 0.0619946315789 -0.199007194737 0.194940157895 -0.0362389473684
Excreting 0.224282811111 0.0882276111111 -0.0928084833333 0.0468865 -0.20599315 0.0536393888889 0.145634 -0.0906185 0.0388345333333 0.196992777778 -0.148424116667 -0.148087994444 -0.0705887 -0.255347065556 0.10843385 0.140199355556 -0.0334562888889 0.202178055556 0.110007555556 0.271153722222 0.169912833333 0.184946444444 -0.193650111111 -0.146840194444 -0.170723055556 -0.216786261111 0.241740216667 0.198333333333 0.174233594444 -0.156574777778 -0.0184860166667 -0.0411539444444 -0.124167055556 -0.176593333333 0.234406 0.09872615 -0.260359672222 0.117969833333 0.0523033333333 -0.0166450388889 -0.0346120555556 -0.018495 0.132369944444 -0.345844388889 0.0468757222222 0.170616333333 0.351669444444 -0.179299444444 -0.132857222222 -0.0163298888889 0.170575005556 -0.0449137222222 0.0711189444444 -0.2779465 -0.0548938388889 0.101277388889 0.0638213333333 0.0272384222222 0.0285511666667 0.224982611111 -0.0777522222222 -0.3160885 -0.315510888889 0.3573315 -0.00601472222222 -0.00274977777778 0.123602611111 0.1744495 0.108384977778 0.444622333333 0.0464981388889 -0.0496995555556 -0.195873722222 0.168793861111 0.297442777778 -0.255032722222 -0.0752290555556 -0.0360007222222 0.126641011111 -0.333959666667 0.0198921111111 -0.232493833333 0.128794722222 -0.130138655556 -0.182533333333 0.146145055556 0.129296777778 0.0269479944444 0.0754055 -0.0756171111111 -0.247301444444 -0.013191 0.309235611111 -0.148579055556 -0.178196611111 -0.0725411666667 0.0984644833333 0.0204898333333 0.0287577333333 0.355622888889 0.225878166667 0.0424365555556 -0.281222944444 0.231468555556 -0.0768137222222 -0.0480527222222 0.0166693888889 -0.0943125 -0.0661128333333 0.162560444444 -0.151924165 0.120099833333 -0.323151111111 0.114432055556 -0.138080072222 0.0904676666667 -0.164034866667 0.0682741111111 0.0601224444444 -0.0429906166667 -0.0485398333333 -0.0431157777778 -0.170636394444 0.350193888889 0.0121974833333 -0.0840054444444 -0.0906512777778 -0.0739111666667 0.0554570555556 -0.0523755 -0.101275222222 -0.0489950555556 0.172307944444 -0.0246413333333 0.0076475 0.1631945 -0.0493256666667 0.0225168888889 0.00791861111111 0.00556755 0.229066777778 -0.0167980888889 -0.0129311111111 0.0584935 0.0811895555556 -0.353282555556 0.0519449444444 0.297866944444 0.115945166667 -0.0686802888889 -0.549715 0.209609444444 -0.0149821777778 -0.00496527777778 -0.0336696666667 0.0175377222222 0.261697833333 -0.208979444444 0.108919888889 -0.0068367 -0.227469027778 -0.257285166667 0.179762944444 0.0172578666667 -0.0439634722222 -0.144613333333 -0.0225893888889 0.299754388889 0.0762537222222 -0.177525111111 -0.0104613888889 0.424312222222 0.417334611111 -0.0685827222222 -0.0957995 -0.209534388889 -0.0867285 0.228397888889 0.274272777778 -0.0986686111111 0.0412592777778 -0.0468216111111 -0.0545468888889 0.0182090555556 -0.0680487777778 -0.100166716667 0.702962777778 0.272969116667 0.15098 -0.230829944444 0.144655388889 -0.111812866667 0.283231888889 -0.303891166667 0.181172311111 0.0565877777778 -0.18180535 0.224549388889 0.0647498888889 0.0754502222222 -0.200767333333 0.262877611111 -0.0251616666667 0.211125083333 0.0142633388889 0.0580043722222 -0.0212676111111 0.140045444444 -0.0438840555556 -0.00830444444444 -0.423992277778 -0.0480812777778 -0.375506777778 0.0418042222222 -0.160521794444 0.120842944444 0.194057666667 0.176463777778 0.0456558583333 -0.0242037222222 -0.414284277778 0.345213611111 0.00172477777778 -0.118992833333 -0.193803166667 -0.350538777778 0.0731177777778 0.198645111111 -0.0801387222222 -0.0706935555556 0.266098888889 -0.0537049666667 -0.0715814722222 -0.269289588889 -0.107426777778 -0.0772656111111 0.0332357444444 -0.1284825 -0.0298123388889 -0.310654722222 0.121587799444 -0.0860810555556 -0.274626166667 -0.0325976666667 0.249282555556 0.119883222222 0.0553325666667 0.153445222222 0.0176939444444 -0.200624944444 0.0328482777778 -0.195017833333 0.142588444444 -0.0325550222222 0.000397777777778 0.274424111111 0.00650611111111 -0.124861133333 0.0957030833333 -0.108096444444 0.268310327778 -0.119519277778 0.0446065 -0.171634533333 0.2329617 -0.204197888889 -0.0132363888889 -0.118018333333 -0.0138293333333 -0.0351651422222 0.00720161111111 0.129210944444 -0.0809902222222 0.06334975 -0.0623880555556 -0.0633181666667 0.207852944444 -0.0418169444444 -0.395875388889 -0.0656157222222 -0.1248383 0.0510676333333 0.0804186666667 0.217444833333 -0.1247435 0.0301042777778 0.111849388889 -0.0491196722222 -0.156527444444 0.0447827777778 -0.152763077778 0.0447726611111 0.101198244444 -0.169563944444 -0.0307915777778 -0.771216666667 -0.0656516277778 0.0745693888889 0.0449200277778 0.163077222222
Goal -0.21995 -0.124611 -0.260115 -0.2147915 -0.040335 -0.0538615 -0.2048875 -0.0480595 0.435425 -1.91735 -0.0999275 -0.217415 -0.07408 -0.08256545 -0.023275 0.22887 -0.414895 0.043431 0.28023 -0.03522 -0.372055 -0.046685 0.0729445 0.315395 -0.236144 -0.175407 0.223045 0.386665 0.068779 0.083855 -0.100328 0.225467 0.2383 0.1227895 -0.895835 0.205705 0.014817 0.33556 -0.116577 -0.2180765 -0.17797 0.0516375 -0.21859 0.128075 0.470315 0.29101 0.037565 0.187764 -0.120095 0.00891 0.019475 -0.19963156 -0.0841205 -0.082815 0.03850645 -0.113065 0.01648 0.16425 -0.1223045 0.0345945 0.065286 0.198555 0.1854485 -0.05908 -0.099276 -0.183442 0.186425 0.316015 0.17773 0.1982015 0.189695 -0.034205 0.0526 0.13278 0.268815 -0.1191675 0.046385 0.077745 0.17281 -0.488415 0.176795 -0.23947 -0.0333945 -0.1589305 0.02279 -0.00555 -0.22276 0.2954895 0.346062 -0.000922 -0.32427 0.215741 -0.1277495 -0.199795 -0.147736 -0.256815 -0.234265 0.247628 -0.0148 -0.229965 0.025821 0.1777525 -0.25543 0.1691715 0.275875 -0.16625 0.152395 0.152031 0.015055 0.454645 -0.018413 -0.1088655 -0.252196 -0.2559715 -0.0519155 0.2839555 -0.368555 0.0850695 0.1854775 -0.296405 -0.148374 0.057857 0.090763 0.179419 -0.107497 -0.126815 0.283395 0.090055 0.159495 -0.127407425 0.252505 0.50349 0.45269 0.196325 0.25005 -0.025395 0.10986785 -0.13864 -0.336615 0.092325 0.100605 -0.2782815 -0.218015 0.55801 -0.530005 -0.159845 -0.046286 -0.0812824 -0.1871155 0.045413 0.340815 0.2337375 0.273355 -0.301715 0.64686 0.28947 -0.119235 -0.161002 0.2018435 -0.22723 0.043705 -0.0722685 0.150165 -0.266055 0.3027295 -0.2566465 0.12243 0.313385 -0.29233 0.103773 -0.21417 0.242165 -0.37956 0.19753 -0.3017775 -0.049978 -0.1259505 0.23187275 -0.002105 0.446205 0.307996 0.1681325 0.186165 0.18501 -0.12691 -0.221435 -0.446385 0.464785 0.26692 0.0716943 -0.09158 0.48596 0.0515445 -0.008776 0.280155 0.08662 -0.0419195 -0.031911 0.62497 0.02062 1.030995 -0.16408 0.020065825 0.101525 -0.016035 0.048765 -0.095852 0.225125 -0.255427 0.125335 -0.0217315 -0.02242 0.080535 0.438695 -0.06953 0.37147 0.365895 0.1111105 0.0698325 0.1694 0.47352 0.02675 -0.2828 -0.1623 -0.18674 -0.221985 0.078795 0.298835 0.053895 0.0200301 0.0894425 0.139266 -0.208967 -0.1674915 0.078795 0.26487 0.073125 0.148815 -0.106715 0.035852 0.01895 -0.192865 0.27685 0.18353 -0.62737 -0.1834415 0.51888 -0.001865 -0.42135 0.0582085 -0.048829 -0.12324705 0.076565 -0.2297965 0.568125 -0.244975 -0.04491 -0.0214835 0.12422 0.46379 0.1403 -0.399755 0.2565525 -0.0629465 0.1829365 -0.055875 -0.2746575 -0.18236 0.21299 -0.03222 0.29821 0.1768925 0.208848 0.352785 -0.0410825 -0.377 -2.2605 -0.032118 0.71855 -0.126305 -0.488315 0.19167 0.22028 0.1244425 -0.26953 -0.011535 -0.03171 0.43563 0.00966 0.1125735 -0.035667 -0.36537 0.23818 -0.089847 0.661635 0.4277035 0.011778 -0.20441 0.095712 0.0531045
Supporting -0.0404093333333 0.068752 -0.660993333333 -0.261296666667 0.0867953333333 0.177884666667 0.226539 0.157314333333 0.0026 -1.28486 -0.215593333333 0.130361333333 0.496646666667 0.068493 0.0792366666667 0.378616666667 0.116103333333 -0.207026666667 -0.169896666667 -0.49254 -0.014725 -0.18993 0.136879 -0.363593333333 -0.0202523333333 0.032975 0.301786666667 0.039777 -0.411173333333 0.56702 -0.126099666667 -0.259443 0.196217566667 -0.246614 -0.375286666667 -0.196395666667 0.266526666667 0.25303 0.61615 -0.317258666667 -0.145523333333 -0.141527333333 -0.0212679666667 -0.0291366666667 0.179756666667 0.0724963333333 -0.15822 0.0153233333333 -0.139916666667 -0.0421346666667 0.333846666667 -0.150791333333 0.071252216 0.009069 0.22185 0.0148751 0.180011666667 0.335547333333 -0.394643666667 0.670516666667 0.163496 -0.239663333333 0.343456666667 0.0875773333333 0.050551 0.562355666667 -0.208083333333 0.15719 0.508633333333 0.26922 -0.340601 0.109443333333 0.123905333333 -0.2312626 0.743363333333 -0.0311566666667 0.139514666667 -0.06507 0.019293 0.218186666667 0.109567666667 0.302169666667 0.243626666667 -0.371619666667 0.0694973333333 0.105413333333 -0.38391 0.151534666667 -0.207250333333 -0.195944666667 0.116397666667 -0.0196763333333 0.034994 -0.314343333333 -0.158907333333 -0.0284803333333 0.0913016666667 0.0146796666667 -0.482063333333 0.361433333333 -0.1458 0.0369353333333 -0.119198666667 -0.004753 0.0983203333333 -0.179623333333 -0.29541 -0.0127406666667 0.395673333333 -0.40709 0.131003666667 -0.188558333333 -0.256756666667 -0.378323333333 0.100091 -0.0542843333333 -0.101974666667 0.152303333333 0.188183333333 -0.183886666667 0.377466666667 0.0309766666667 0.131116666667 -0.0290966666667 0.139336666667 0.169376666667 0.129411333333 0.00935433333333 0.282766666667 -0.205115333333 -0.53889 0.258614333333 0.122417333333 -0.0804196666667 0.257964666667 -0.115546333333 0.147372666667 -0.0180553333333 0.342552666667 0.167175 0.0184208333333 -0.14256 0.122024833333 -0.112143333333 -0.0874413333333 0.0983566666667 -0.03674 -0.27567 -0.111160666667 -0.0431366666667 0.12183 -0.0554833333333 0.281993333333 -0.00287466666667 -0.120136666667 0.225310666667 0.271366666667 0.060563 -0.1330104 0.149086666667 0.02713 -0.0564766666667 -0.0445073333333 0.465036666667 0.16472 -0.101444 -0.38016 0.135923666667 0.062759 0.145326666667 0.467866666667 -0.05333 -0.442887666667 -0.169318333333 0.00876866666667 -0.188906666667 -0.28694 0.0162403333333 -0.129469333333 0.067729 -0.153445 -0.00893333333333 0.424983333333 0.1122401 -0.321949666667 0.3286 -0.0173433333333 0.0639833333333 0.153873333333 -0.155603066667 -0.252476 0.30917 -0.14358 -0.18064 -0.127792666667 0.256926666667 0.537326666667 -0.173003333333 0.230493333333 -0.0673533333333 0.16814 -0.102983333333 0.143258333333 0.212514333333 -0.348335333333 -0.07631 0.111993333333 -0.0504 -0.141566766667 0.593833333333 -0.12348 0.00796066666667 0.258047666667 0.09354 0.13478 0.204870333333 -0.272132366667 0.162636 -0.45153 0.110503333333 0.0972266666667 0.0932776666667 -0.161816333333 0.133822333333 0.0971266666667 -0.0757993333333 -0.372126666667 0.267643333333 -0.3035 -0.366113333333 -0.10692 -0.165186666667 0.401033333333 0.36086 0.00861133333333 -0.0846306666667 -0.171485333333 -0.07466 -0.0486406666667 -0.0842936666667 -0.316746666667 -0.17597 0.324885333333 -0.153870666667 -0.476366666667 -0.321440333333 0.247953333333 -0.297239 -0.289146666667 -0.108261366667 -0.00634366666667 0.135121666667 0.886026666667 -0.334986666667 0.145995 -0.121668466667 -0.168285633333 0.0483134266667 -0.0877866666667 0.318401 0.476650333333 0.278986666667 -0.12076 0.2607 0.0829693333333 -0.112442333333 -0.238834 0.111449 0.149056666667 -0.220176666667 0.0145593333333 0.129882 -0.210248 -0.188897 -0.164824333333 -0.162872333333 -0.78805 0.122541666667 1.15394 0.006417 0.342316666667 0.0387976666667 -0.0392313333333 0.119621 -0.071209 -0.551778666667 0.30179 0.621366666667 0.173794333333 -0.0751676666667 -0.147031333333 -0.153813333333 0.0950533333333 0.109191066667 -0.181397333333 0.325233333333 -0.158139666667 -0.51825 -0.36739 -0.168428
Accuracy -0.0108765454545 0.117744363636 0.252880909091 0.0643959909091 -0.1209908 -0.0107718181818 0.100202727273 -0.00886754545455 -0.0398502545455 -1.35602309091 0.0785188363636 0.158819090909 0.148823672727 0.163908272727 0.107535727273 0.300431090909 0.0737675454545 0.155705890909 -0.090218 -0.0569525454545 0.180426645455 0.0447352363636 -0.178139181818 -0.0654486363636 0.0967302727273 0.204020818182 -0.156932369091 -0.152321 0.0144926363636 0.165698272727 0.232188090909 0.444582545455 -0.298972836364 0.092165 -0.0840827272727 -0.0125197272727 -0.264687454545 -0.0877274272727 -0.152861636364 -0.117435627273 -0.0117625545455 0.124789336364 0.177277090909 0.00721927272727 0.0423306363636 0.159715636364 -0.0563002727273 -0.157134836364 0.0387145454545 0.0869904363636 0.444903 0.0325579090909 0.140403818182 -0.108585454545 -0.45038 0.170864818182 -0.114074272727 -0.146845187273 -0.0752100636364 0.348849545455 -0.103298 -0.117500290909 0.0796887272727 -0.140589872727 0.0457155454545 -0.063901 0.334357090909 -0.245066636364 0.0893549090909 0.337047272727 0.134469536364 0.330372 0.145931772727 -0.00544045454545 -0.101973272727 0.147924090909 0.210750181818 0.475040181818 -0.135576363636 0.0399038818182 -0.329570181818 0.0651262727273 0.192260727273 0.0930803636364 -0.157373272727 0.20831387 0.000204590909091 0.00469136363636 -0.0151914545455 0.495497818182 -0.0844193636364 0.0789096090909 -0.329503636364 -0.0857633636364 0.0460629545455 0.1159563 -0.460197727273 -0.00728290909091 0.019931 -0.366723545455 -0.0669688181818 0.250872545455 0.102010654545 0.358413636364 0.158192636364 0.00504636363636 0.140090454545 -0.0733994545455 0.0165289363636 0.0706781818182 0.213127818182 0.0636734545455 0.0317212727273 -0.106571545455 0.262386363636 0.0302589090909 -0.122164272727 -0.376024545455 0.268217454545 -0.0142958 0.00274209090909 0.0553048181818 0.301697045455 -0.015908 -0.0887997181818 0.302663272727 0.148781818182 0.0124205454545 -0.243081272727 0.0688388181818 -0.159685272727 0.243441818182 0.0276064909091 0.114865454545 -0.0691257272727 -0.0421313363636 0.0684419090909 0.000203909090909 0.194738727273 0.176325272727 -0.0545941818182 0.0423531818182 -0.232125581818 0.0604625454545 -0.0775793363636 -0.200361454545 -0.106879090909 0.101753636364 0.424000909091 0.0484540909091 -0.28149 -0.242374809091 -0.0701921454545 -0.207834545455 -0.0982030909091 -0.0818550909091 -0.0720133636364 -0.00563496545455 0.269431109091 -0.324874818182 0.0783823636364 -0.273784545455 0.167598909091 -0.435211909091 0.373205890909 0.149068727273 -0.169032181818 0.0310165636364 -0.0603655454545 0.193174909091 -0.118867727273 -0.0464401272727 -0.0773810909091 0.0679909090909 0.398376818182 -0.303355 0.0142645454545 0.0793367272727 -0.356952818182 -0.271749636364 0.0201511636364 -0.0930940909091 0.145212790909 0.241977818182 -0.3498246 -0.155991881818 0.239898818182 -0.1881262 0.153655909091 0.299958181818 -0.0805045454545 0.169800363636 0.243056727273 -0.106895545455 0.0298768181818 -0.101869727273 -0.09853 -0.0562802727273 -0.136013918182 -0.0851303454545 0.210259090909 -0.120225818182 -0.264492454545 -0.0858007 0.0831546363636 0.348614545455 -0.288717636364 0.203019636364 -0.0497865272727 0.1637586 0.213342818182 0.176896463636 0.0739287272727 -0.229829727273 -0.11874811 -0.197012454545 0.198528090909 0.0475980909091 -0.121700090909 -0.0609907727273 -0.44664 0.295592363636 -0.121944954545 -0.054582 -0.250089454545 0.243870545455 0.0480240363636 -0.0009353 -0.0732747272727 -0.0597865272727 0.104499436364 0.0977933636364 0.0100357272727 -0.111679636364 -0.239650727273 -0.05521 -0.210458727273 -0.0182983636364 -0.0159245454545 0.467751636364 0.282176818182 0.234848190909 0.263978090909 0.0614180909091 -0.290525454545 -0.0677590909091 -0.210617272727 0.106362909091 0.0109640909091 0.221617272727 0.00776754545455 -0.246851272727 -0.251500909091 -0.355859090909 0.0391196909091 -0.157757272727 -0.223045545455 0.102914363636 -0.0643583636364 0.0081983 0.0273300090909 0.180460545455 -0.228673090909 0.051874 -0.153328272727 0.133784545455 -0.0858169272727 -0.318549836364 0.196229281818 0.0232377181818 0.167246454545 0.178733636364 -0.00561359090909 0.476258909091 -0.142068727273 0.0776454909091 -0.856727272727 -0.0826010909091 0.117515454545 -0.117565545455 -0.0514032727273 0.212464818182 0.175118636364 0.191613636364 0.369676363636 -0.254409090909 -0.068144 -0.478388181818 -0.229464545455 0.106413272727 0.129611181818 -0.00964481818182 0.367874181818 0.035075 -0.0132958 0.123702363636 -0.247306 -0.00504881818182 -0.0125392727273 -0.149902272727
Strictness -0.05937 -0.412165666667 0.164550666667 -0.0430216666667 0.241131 -0.0758831666667 0.345183333333 0.027451 0.339108333333 -0.727088333333 0.0348105 0.5258735 -0.108316333333 0.0626786666667 -0.1000805 -0.0503385 0.284470183333 -0.12113472 0.173138333333 -0.233708333333 0.382469833333 -0.00418045 0.303912166667 0.173890833333 -0.245836666667 0.140623166667 0.095075 -0.1393505 -0.178660833333 -0.03196925 -0.287174166667 0.233007166667 0.169296833333 0.101437833333 0.0158676166667 0.421934333333 0.215349133333 -0.159306166667 -0.275022666667 -0.195241666667 0.457214333333 0.417065 0.418431666667 -0.611493333333 -0.0347933166667 0.103861666667 -0.034898 0.144946583333 -0.0859503333333 0.01591305 -0.119151666667 -0.332341833333 0.438552966667 -0.2299783845 0.430769166667 -0.181073 -0.0618229166667 -0.383378833333 0.132597666667 -0.00133333333333 0.417658466667 0.0490632166667 -0.126406 -0.126424666667 -0.210961333333 0.187631 -0.105103 -0.0861795 0.245481666667 0.3351625 -0.304582666667 -0.202352 -0.365368333333 -0.036235 0.405921666667 0.16773 -0.2002135 0.346154666667 -0.378166666667 0.257806666667 -0.268896333333 0.0226733333333 -0.072637 -0.0696931666667 0.2580095 0.0268960333333 0.276053 0.099646 -0.254762333333 0.07519 -0.448101666667 -0.06235914 -0.1729959255 0.307931666667 -0.034635 -0.2506875 0.188564666667 0.291208 0.0236951416667 0.232680216667 0.366609666667 -0.27376 -0.050328 0.0885431833333 -0.521198333333 0.50539 -0.293829333333 0.58567 -0.25836 -0.0719755 0.264160666667 -0.29909 -0.00277433333333 -0.176590016667 0.2557275 -0.232731333333 0.0261955 -0.361221833333 -0.266405333333 -0.0592566666667 0.00852116666667 -0.00132766666667 -0.133998666667 0.401416666667 0.436780333333 0.239691666667 0.164966666667 0.2108415 0.30246 -0.117791666667 0.206828333333 -0.354401333333 -0.0170807666667 0.373393166667 0.3097547 0.254571333333 0.495907333333 -0.0490281 0.143610666667 -0.186063833333 0.0527573333333 0.242996166667 -0.369526666667 0.306393333333 -0.004675 -0.241484333333 -0.077254 0.0720646 0.0185682333333 0.272963333333 -0.0883733333333 -0.201560666667 0.0944021333333 0.442025 -0.0510199333333 0.482008333333 -0.0202793333333 0.314854666667 0.213719166667 0.0751658333333 -0.04136755 0.178878333333 0.182263333333 -0.1560025 0.043675 -0.224251333333 -0.199408 -0.335981666667 0.332536666667 -0.413425 0.220555366667 0.0395248333333 -0.431151666667 -0.0466501666667 0.315425621667 -0.178056 0.5136445 0.46234335 -0.142138166667 0.398357166667 0.316340166667 0.0732925 0.11803 -0.0718541666667 0.0409816666667 0.240423333333 -0.0385165 -0.152348333333 0.298821 -0.278671 -0.405566666667 -0.196755 0.1603874 0.194087633333 -0.0762398333333 -0.071685 -0.32581419 -0.22962 0.331999666667 -0.0962990333333 -0.0377601666667 -0.0536948 0.1418665 0.0731848333333 0.219033666667 0.0248373833333 0.232660666667 0.160098333333 0.34305 0.21857445 0.00215733333333 0.0526535 -0.15213 0.402467333333 -0.357148 0.0473266666667 0.0245484833333 -0.119469833333 0.0326946166667 0.0754 -0.0186475 0.51765 -0.0403183333333 0.413096666667 -0.168659833333 0.3756065 0.0882603333333 0.2872929 0.248328333333 -0.033497 0.0712421666667 -0.242450333333 0.108456366667 0.2669025 -0.0605715066667 0.00654166666667 -0.173505333333 -0.039535 0.0177966666667 -0.0413776666667 -0.135071666667 0.216186666667 0.096502 0.196309333333 -0.497311666667 0.142225283333 0.0597085 -0.0832804333333 -0.070881 -0.0111341666667 0.241340166667 -0.489671333333 0.228488883333 0.347931666667 0.266311666667 0.212467283333 -0.0954208333333 -0.169751166667 -0.246384643333 -0.195424083333 -0.394536666667 -0.137720166667 -0.209408666667 -0.269981166667 -0.299931666667 -0.00540333333333 -0.00978766666667 0.276129166667 0.136800833333 0.152655833333 0.254887 -0.138731333333 0.137876666667 0.0848008333333 -0.15752 0.199862833333 -0.564118833333 0.238315833333 0.1294767335 -0.279790166667 0.564715 -0.35473 -0.1207775 0.0408548333333 0.00841068333333 0.0179881666667 0.0122428333333 0.0222701666667 -0.147193333333 -0.197976 -0.0721390166667 0.0522865 -0.0462016666667 0.14949145 0.316280666667 0.185678666667 -0.1426625 -0.174288166667 0.1555765 0.103043333333
Kinship -0.195455607018 -0.0493602508772 -0.0287075578947 -0.0334321403509 0.0701233157895 0.0699051501754 -0.162928778947 -0.102266926316 -0.157853596491 -0.134912976667 -0.124876649123 0.0151006298246 0.0470046842105 -0.0976978315789 -0.201040065965 0.0916502292982 0.127075094737 -0.462558092982 -0.0454482929825 0.146544491228 -0.048467802807 0.321803578947 -0.357899 -0.0862298087719 0.193743950877 -0.043792577193 -0.0772975438596 0.102360926491 0.0302257087719 -0.167165398667 -0.322721164912 0.419438140351 0.101649280702 0.0797620736842 0.164296929825 0.158987842105 0.0817077508772 -0.0613445596491 0.0362578824561 0.0939140914035 0.241281698246 -0.0938428947368 0.214619947368 -0.284408438947 -0.0186632824561 0.110756933333 0.261924231579 0.221348408772 0.109836636842 -0.161484210526 0.0376827403509 -0.152017850877 0.196898614035 0.0480376929825 -0.129298936842 -0.15094212807 0.140131208947 0.319167849123 0.0722528859649 -0.262131417544 0.0740109596491 0.091999402807 0.292095994737 0.422102903509 0.208398661404 -0.144962561404 -0.118284547368 -0.0964574210526 -0.167078596491 0.136671098246 -0.1280912 -0.299897412281 -0.197278007018 -0.000958107017544 0.0608276842105 -0.109010210526 -0.096289277193 -0.295268589474 -0.0827241903509 0.146453247368 0.127220315789 0.306826508772 0.262218421053 -0.153941298246 -0.0515877315789 0.138508507018 0.103940435088 0.123624110526 0.145224668421 0.0706233280702 -0.163337859649 -0.128390421053 -0.0941868263158 0.275013694737 -0.132562210702 -0.1679287 0.0821061105263 -0.0472567298246 0.287328259123 0.0257373684211 0.275269598246 -0.125126333333 0.161531266667 0.0784355705263 -0.032998254386 0.0184134082456 0.104057354386 0.0408625787719 -0.0300225859649 0.033204677193 0.0770170175439 0.373513894737 -0.0580553068421 0.102081978947 0.0910488666667 -0.0443913701754 0.13317250386 -0.125142482456 0.187309063158 -0.0522036315789 -0.0616450824561 0.21403705614 -0.336549807018 -0.342948561404 0.0504099964912 0.0335462947368 0.0287045438596 -0.239026759649 0.273734947368 0.0301321263158 0.150871993158 0.0312697254386 -0.0915944631579 0.126438205263 0.209493640351 0.104363070175 0.19471722807 -0.183604066667 -0.149986468421 0.0742660350877 0.175393912281 0.0782439192982 0.142044321053 -0.0398746508772 0.108798838596 -0.113586605263 -0.114000612281 0.184601610526 0.0081141 -0.11256777193 -0.240768950877 0.140101836842 -0.218424742105 0.254083303158 -0.132559696491 0.158052426491 0.174279914035 -0.0284438473684 0.202852754386 0.0894916842105 0.296336684211 0.21570197193 0.178031842105 0.151474750877 -0.145642219474 0.0400814470175 -0.138007929825 0.0702267719298 0.169482551053 -0.0283847894737 -0.0197652649123 0.0969153598246 -0.413927877193 -0.00764236842105 -0.0559848559649 -0.148591684211 0.0599215752632 -0.310920719298 0.0633147491228 0.164261154386 0.00145824561404 0.180015038596 -0.132051245614 0.342834364912 -0.0242155087719 0.0150342263158 -0.302235445789 0.0430406526316 0.135031129825 -0.0844163684211 -0.108049075439 -0.537743585965 -0.135707505263 0.122154201754 -0.481870438596 0.0634932473684 -0.0512072877193 -0.249154010526 0.124833249123 -0.315647445614 0.552860333333 0.0124133526316 0.330399947368 0.0180204842105 0.289780335088 -0.00638295526316 0.137753568421 0.0462783666667 -0.0542034375439 0.0477317122807 -0.273869608772 0.0413020035088 0.088638877193 -0.16806454386 -0.0498816087719 -0.0176920982456 0.0298262303509 -0.264876498246 0.115674570175 -0.180665159649 -0.20426964386 -0.0422581368421 0.00523554035088 0.120658068421 -0.223203294737 0.354832807018 0.235810461404 0.0518398368421 -0.123474249123 0.125653596491 -0.262394657895 0.079298122807 -0.144358254386 -0.00469326315789 -0.0998374070175 -0.0562221087719 0.0230305894737 0.252438938596 -0.200804175439 0.197661736842 0.0565841245614 -0.0446234889474 0.0867129982456 0.223778017544 -0.0147333333333 0.121173284211 -0.0177068842105 0.00881275263158 0.0315557315789 -0.0355090824561 -0.079523745614 0.197364563158 -0.0672901859649 0.188042152632 0.488314754386 0.342513014035 0.115541701754 0.218888315789 0.157566519649 -0.151166294737 0.10628072807 0.0489182508772 -0.148586515789 0.0196937315789 -0.292101378947 0.216350498246 0.208039070175 -0.047977422807 0.151217408772 0.165379770175 -0.190461003509 -0.159231421053 0.180924192982 -0.283187447368 -0.0705910263158 -0.314868582456 -0.252307894737 -0.222575723684 -0.069334922807 0.0286773807018 0.00465544210526 0.36710267193 -0.115993423684 -0.145830736842 -0.284989122807 0.252032263158 0.316733109298 0.244285792982 0.0784806947368 0.0756253684211 0.163142017544 0.0945630701754 0.353876004912 -0.316488559649 -0.333660510526 -0.401360455263 0.327160035088 0.090885245614 -0.0946549508772 0.497600950877
Seeking -0.0643897272727 0.165295636364 -0.0850372727273 -0.0169717272727 -0.0233559909091 -0.151497272727 0.174323727273 0.120922863636 0.0871100909091 -0.504130909091 0.149820909091 -0.0320590909091 -0.0127424545455 -0.122970018182 -0.0583989090909 -0.0161442727273 -0.0323899090909 -0.0897201545455 0.0170821181818 -0.0147648727273 0.0756559090909 0.142960181818 0.000245363636364 0.0138743636364 -0.137236909091 -0.173911181818 0.214941936364 -0.0230306363636 0.134505136364 -0.0819146363636 0.0566178181818 -0.109050090909 -0.0357080909091 -0.322640818182 -0.560829363636 0.2539718 -0.128323272727 0.228046545455 0.0565848181818 -0.0760257272727 -0.00437621818182 0.152877272727 0.146379363636 -0.232557909091 0.0945725727273 0.178707272727 0.121144727273 -0.0673436363636 -0.0118709090909 0.0722615454545 0.0458771818182 -0.121941818182 0.0156401818182 -0.3594059 -0.0477986363636 0.173627081818 -0.0824680181818 0.00846681818182 0.0257392545455 -0.0146626363636 -0.0219688181818 -0.108147463636 -0.0378752418182 0.347460545455 -0.0208864545455 -0.0424053636364 0.132971909091 -0.0402738181818 0.218249727273 -0.0658281818182 0.129814370909 -0.105160181818 0.0283395454545 0.188776454545 0.111735181818 -0.0485221181818 0.137269454545 0.105575363636 -0.0333572727273 -0.170014363636 0.0465138090909 -0.0406963545455 -0.0148445454545 -0.0603937636364 -0.0143666363636 -0.0347588181818 0.0428673636364 0.199120454545 -0.267316909091 -0.136022181818 -0.128437272727 0.193653572727 -0.09866 -0.154498909091 -0.0948900909091 0.012994 -0.227693090909 -0.0487981818182 -0.055813 0.120174090909 0.124731 0.0113755454545 -0.316578363636 -0.00920709090909 -0.0155599090909 0.0288411818182 0.0838356363636 -0.0596689 -0.037278 0.148964363636 0.0606299090909 -0.0116876545455 -0.1327888 -0.0677840909091 -0.123159090909 0.217094945455 -0.0851895363636 0.301976090909 -0.01745 -0.174081636364 -0.217253990909 -0.3116248 0.210816454545 -0.0389510545455 -0.0549682727273 -0.0397356363636 -0.134252545455 0.218732454545 -0.00719063636364 0.00965299054545 -0.0958948181818 -0.0348438181818 0.0196517 0.185642263636 -0.0192257272727 0.0651073636364 -0.00387854545455 -0.0724835454545 -0.110244636364 -0.0456589163636 0.211467636364 0.100678545455 -0.0716196363636 0.0868959090909 -0.271426636364 -0.0836698181818 -0.118180045455 0.231410090909 -0.0926323636364 0.195164909091 -0.284694 0.113688818182 0.0325774545455 -0.179145 0.262938909091 0.0834532727273 0.0767774545455 -0.139334 0.155008909091 0.143214454545 -0.00187354545455 -0.172964181818 0.0578993636364 -0.0902684545455 -0.0235722727273 0.0869054545455 0.0856396363636 -0.032765 -0.00246781818182 -0.151345181818 -0.0823523636364 -0.0375680909091 -0.0843965454545 0.135467272727 0.102011818182 -0.0467755454545 -0.150484909091 0.30137 -0.0488839454545 -0.00729109090909 0.122225454545 -0.0152104545455 0.0383170909091 0.0182297272727 -0.105342747273 -0.0648816363636 0.205245181818 0.160967727273 0.0778410909091 -0.00113482727273 -0.0707108181818 -0.0361522727273 -0.133457209091 -0.0369535454545 0.0508234545455 -0.0366660909091 0.113934518182 0.0545835454545 0.103513454545 0.0188730909091 0.468143727273 0.284520909091 0.165971936364 0.0813958181818 0.0543930090909 0.204767545455 0.0515336363636 -0.0438960909091 0.0214251818182 -0.106871181818 0.0279784545455 -0.186637 -0.0645028181818 0.298016090909 -0.173628545455 -0.137756636364 0.0141716363636 0.0842656363636 0.00359136363636 -0.00234122181818 0.0327855454545 -0.0373972727273 -0.0811546363636 0.0835292727273 -0.104396363636 -0.0156498181818 0.110298636364 0.00764279090909 -0.0631231818182 0.0495664545455 0.271801 0.0904586363636 0.0323601818182 -0.0171711181818 -0.0813829090909 0.159396518182 -0.0492027909091 -0.008758 -0.182332236364 -0.217058454545 -0.0234147272727 0.0694424545455 -0.089461 0.00500827272727 -0.110666727273 -0.101022745455 0.214740363636 0.0193270363636 -0.0581726363636 0.00690356363636 0.121474545455 -0.101538654545 0.0781108181818 0.23327 0.184078363636 0.209020636364 0.122416 0.0219227 -0.164662272727 0.0766325454545 0.127793172727 -0.436104527273 -0.0301277272727 0.111976818182 0.0344772727273 0.0659634545455 -0.261406818182 -0.113385636364 -0.0791916363636 0.0941759090909 0.0515430936364 -0.0632373636364 0.322558545455 0.100602818182 -0.0429566363636 -0.276722909091 -0.992532818182 0.0980970636364 -0.000613545454545 -0.152619454545 -0.260626272727 0.0460137272727 0.0731867272727 0.129640454545 -0.151039545455 -0.121713181818 0.249548636364 0.075695 0.0817568181818 -0.00398336363636 -0.0900282727273 -0.0702896363636 0.00557627272727 0.0475617272727 -0.0290675827273 -0.377503663636 0.0164845454545 0.136845090909 -0.0199940909091 0.000644818181818
Importance 0.202966045455 0.0470147568182 -0.0705733227273 -0.202291681818 0.0512943181818 -0.0130423190909 -0.0670904090909 0.0338441363636 -0.284625940909 -1.29002281818 -0.06107275 -0.173759590909 -0.23570725 0.226539318182 0.0224067272727 -0.221275363636 -0.210807590909 -0.102072786364 -0.108660645455 0.0243552090909 -0.102102590909 -0.00191484045455 0.132353863636 0.0105745454545 -0.104137868182 0.0748220909091 -0.102862954545 -0.115737227273 -0.104138318182 0.139560227273 0.0649003454545 0.267279454545 -0.436465545455 0.0381941772727 -0.520582954545 0.1602175 -0.0246131363636 0.2047224 -0.152746545455 -0.0839189545455 0.258132136364 -0.323340740909 0.0535649136364 -0.125204545455 -0.214944595455 0.244285909091 -0.0141158636364 0.0360063772727 -0.179063727273 0.217499045455 0.0845155454545 0.100229 -0.125683 0.0411502272727 -0.0639673636364 0.0259773636364 -0.124718640909 0.0125417727273 0.352918813636 0.316236363636 0.142942231818 0.0713282272727 -0.00372863636364 -0.0233494409091 -0.0641411363636 0.104182163636 0.0667491590909 0.173771040909 -0.0276920454545 0.2027395 -0.161782954545 0.0990450386364 0.00769884090909 -0.0709132772727 0.0810583681818 -0.116568922727 -0.0779080454545 0.0426799090909 -0.209156227273 0.0309814409091 -0.131904918182 -0.214902427273 0.162878363636 0.0231534545455 0.167150231818 0.09663355 0.0110799090909 0.0652059227273 -0.0725896272727 0.1668408 0.109622318182 0.0313266681818 -0.241827904545 0.0472388636364 0.111802859091 -0.0309328586364 0.0138644840909 -0.272571136364 -0.0524140454545 -0.0770395545455 -0.152782454545 0.0610376136364 -0.0136989636364 -0.0447893454545 -0.0260208681818 0.0283753636364 -0.100706272727 0.0439540863636 0.0251033636364 -0.0934885454545 0.0924828636364 -0.0426926818182 -0.0973496545455 0.152520145455 0.184123272727 -0.144366963636 0.141731590909 -0.00690107727273 -0.0709701363636 -0.147495613636 -0.0546419863636 -0.0421903636364 0.00272404545455 -0.0451686363636 -0.0881225 -0.0223775454545 0.0331753590909 -0.0781783863636 -0.0146062272727 -0.134770272727 0.136367354545 0.0983546818182 -0.0174516363636 -0.0893950909091 -0.093049 -0.180514136364 0.0241857272727 -0.01454965 0.278307 0.314468045455 -0.057679465 -0.102223768182 0.221439663636 0.0769525 -0.150552854545 -0.0852973272727 0.034906 0.117470863636 -0.283368136364 0.137119372727 0.106251954545 -0.0267436318182 -0.180019454545 -0.0958017727273 0.206318031818 -0.0398544909091 0.0542989954545 0.174202859091 -0.195769131818 0.0313677954545 0.0163364090909 0.0586654545455 0.156416227273 -0.0490888636364 0.0238225454545 0.00456572727273 0.00154585909091 -0.0280271454545 -0.0211337727273 0.560199318182 0.247121727273 -0.294747727273 -0.407412181818 -0.102455863636 0.244159136364 0.0109185318182 0.128232409091 -0.0971409863636 -0.144160454545 0.0666095909091 -0.149859236364 -0.0726735 -0.0918715 -0.108487854545 -0.199041727273 0.089881 -0.254700863636 -0.0391516818182 -0.192643995455 0.0648477272727 -0.0182571818182 0.0971800909091 0.177571045455 0.0462059954545 0.212266409091 -0.0708993 0.147845409091 -0.115469181818 0.0468024454545 0.0958240318182 0.459400090909 -0.0291078181818 -0.106691004545 -0.264401827273 -0.0742005681818 0.117900886364 0.100323931818 0.0370280909091 -0.0301563590909 0.265684481818 0.0751501363636 -0.0219749545455 0.103054772727 0.135011786364 0.226247454545 0.0251621818182 -0.007678595 0.116278261818 0.180350605455 0.20765765 -0.151154727273 -0.205829454545 0.0372771363636 0.189728681818 0.121642227273 -0.119593272727 -0.157686640909 0.229916727273 -0.191221363636 0.221115954545 0.0176153590909 0.0414478181818 -0.0181958181818 0.118581454545 -0.0441542272727 0.214577227273 0.155093427273 -0.0831424090909 0.110436913636 -0.0621608181818 -0.0784419090909 0.1864639 0.411207909091 -0.0388626363636 -0.624008318182 -0.00803377272727 -0.110728195455 0.247249909091 -0.00693968181818 -0.0621592272727 -0.149811419545 -0.101538195455 -0.142517463636 -0.113376877273 -0.0746515181818 -0.0976601363636 -0.173949454545 -0.151511372727 0.0835084090909 0.161199186364 0.170671795455 -0.0977072272727 0.1468765 0.0773760318182 -0.117684590909 0.0753221818182 -0.169605454545 -0.171149454545 0.141173181818 -0.0242920909091 0.297205227273 0.119709409091 -0.0655873954545 0.172242681818 0.00764889090909 0.0442008045455 -1.374985 -0.0159631363636 0.753943090909 -0.00555513636364 -0.0872895454545 0.100606 0.152633409091 -0.0972205 0.265580909091 -0.211355909091 -0.117984459091 0.0190771363636 0.00408027272727 0.0902803636364 -0.155581863636 -0.00760122272727 0.130984863636 0.0114241363636 0.0439363636364 0.505483772727 -0.168518409091 -0.202108681818 -0.293167318182 -0.17321955
Losing_track_of_theme 0.11512 0.28309 -0.30098 0.37253 0.14009 -0.16333 0.4637 0.61603 0.0034331 -0.91309 0.098075 -0.48256 -0.49113 -0.22662 0.034372 -0.12478 0.182 -0.23503 -0.037198 -0.23075 0.36033 0.21793 0.4294 -0.25347 -0.15847 -0.31629 0.090983 0.15359 -0.24855 0.14089 -0.065472 -0.032745 -0.31204 -0.68853 -1.5913 0.079524 -0.063156 0.18577 0.057634 -0.061382 0.23863 -0.60063 -0.2866 -0.37312 -0.17375 -0.18946 0.049761 -0.21782 0.020629 0.059681 0.053499 -0.45284 0.14586 -0.38298 -0.11453 0.17902 0.52898 0.13793 0.23242 -0.21544 0.1895 -0.29924 -0.25525 0.47123 0.0070954 -0.50805 0.10175 -0.15067 0.20764 -0.012972 0.14248 0.16968 0.1402 0.35212 0.050086 -0.20711 -0.30667 -0.23275 -0.50027 0.11458 -0.28264 0.16218 0.059495 -0.053393 -0.24712 0.10915 -0.0010218 0.13859 -0.18533 0.38519 0.11274 0.25925 -0.093968 -0.49115 0.036238 0.0077536 -0.49077 -0.059158 0.071307 -0.087252 0.10739 -0.11346 -0.43456 -0.44715 0.45551 0.257 0.056309 -0.30103 -0.22962 0.016435 -0.15773 -0.43459 0.13785 -0.23523 0.025787 0.73874 -0.061837 0.19109 0.16089 0.12667 0.031076 -0.57692 -0.046502 0.63934 0.11661 -0.19682 0.53643 0.13961 0.36193 0.11566 -0.066403 0.092408 0.35149 0.15259 -0.16764 0.39308 -0.079913 -0.25593 0.25808 0.15226 0.043853 -0.035681 0.052727 0.64173 -0.51105 0.11194 -0.36152 -0.094885 -0.0072729 0.24383 -0.21334 0.12431 -0.433 -0.30226 0.091998 0.24577 -0.074727 0.03582 -0.19437 -0.032393 -0.14754 0.01886 -0.077843 -0.0087241 0.15066 0.017502 -0.23995 -0.24114 -0.38634 0.32682 0.063208 0.12141 -0.53164 0.349 0.25391 -0.15686 0.24493 0.58997 0.35135 0.64968 0.12817 -0.25766 0.15188 -0.080755 0.099471 0.17823 0.13745 0.1351 0.099424 0.075541 0.13164 0.072446 0.1185 0.093683 0.20604 -0.19979 0.13997 -0.20132 0.56237 0.14623 1.2259 0.5268 0.27613 -0.12247 -0.37657 0.030758 0.23389 -0.18393 -0.07043 0.010147 -0.45155 -0.39153 0.043919 0.42294 0.20256 -0.21834 0.12332 0.39633 0.16139 -0.19481 -0.24676 -0.16333 -0.13191 0.25488 -0.12207 -0.11651 -0.020254 0.44782 -0.17498 0.25966 0.15434 0.18524 0.38054 -0.19233 -0.31278 -0.17235 -0.024255 0.48761 -0.091617 -0.25473 0.37499 -0.00064762 0.7983 -0.27847 -0.40787 0.21453 -0.11514 -0.067451 0.20878 -0.23996 -0.13916 -0.17466 -0.12444 0.13259 -0.31964 0.39718 -0.06398 0.11216 -0.11507 -0.25007 0.20803 -0.44174 -0.055892 0.57 0.22261 -0.2832 0.23236 -0.25184 0.023077 0.34912 -0.055269 0.15133 0.10069 -0.12094 -0.065613 -0.10836 -1.5753 -0.22793 0.28103 0.38951 -0.34246 0.4935 0.20003 -0.25669 -0.0073826 -0.28977 0.1928 -0.016383 -0.24895 0.19192 -0.17494 0.05746 0.00058237 -0.53165 0.1854 -0.22108 -0.26862 -0.62415 0.22342 -0.27623
Adjusting -0.1466092 0.03407854 0.04888 -0.08744644 -0.2402608 -0.194926 -0.0495966 -0.1946012 0.1089002 -0.598 -0.1055882 0.2021058 0.4180224 -0.40302338 0.0067498 -0.21455638 0.323628 -0.2374408 -0.3615914 -0.3155474 0.0736004 0.048966 -0.132594 0.2356232 -0.2610536 0.2298164 -0.088692 0.331068 -0.3726502 0.25413728 0.032038 -0.100636 -0.0945476 0.3968334 0.189162 0.47995 -0.374874 -0.2594926 -0.1130794 0.0457054 0.1509434 -0.024446458 0.2237494 -0.689462 -0.095036 0.2759972 -0.415854 0.1021052 -0.35362 0.0414158 0.1877184 -0.31454464 -0.0078794 -0.2327094 -0.2456996 0.052916 -0.00993226 -0.0635704 -0.1024416 0.252384 0.1229046 0.0464618 0.0610108 -0.0104826 -0.203174 0.2432666 0.23095556 -0.0399534 0.378274 0.305206 0.065512 0.480008 0.1158508 0.10832 0.123134 -0.064178 -0.273738 -0.158668 0.1431482 -0.4316346 -0.2912398 0.3073762 0.2308822 -0.377432 0.3231 0.3123564 -0.1599612 -0.147532 -0.1178474 0.2847456 -0.0683268 0.313526 -0.11408848 -0.2070772 0.2282314 -0.15123 -0.183646 -0.0990582 -0.0215752 -0.0025618 -0.2014922 0.0073844 -0.4176404 -0.0160596 0.202502 -0.128635 -0.4302552 0.2086972 -0.0584102 0.36675 0.369614 -0.3350054 -0.30445 0.119676 -0.303918 -0.2002162 -0.1537404 -0.1111294 -0.085384 0.3558218 0.1624846 0.0416604 0.0896122 -0.049552 0.02795 0.06372012 0.0669646 0.1409896 -0.024888 0.302166 0.1410814 0.116275118 -0.025446 0.3464024 0.054945 0.061497 -0.1261956 -0.446304 -0.073 0.393756 -0.1223062 0.000769 -0.369174 0.0769728 0.1083874 0.0465064 -0.25761909 0.367074 0.325898 0.1102458 -0.54829 -0.152002 -0.0253348 -0.0282634 -0.12149948 -0.0906928 0.0951054 -0.2021668 -0.073976 -0.0523024 0.004254 -0.1989824 -0.450487 -0.325492 0.2714974 -0.1205664 -0.0772582 -0.1955102 0.224702 0.3047432 -0.295914 0.2704678 0.215277 0.1091386 0.1525948 0.168768 0.1995724 0.1143332 -0.28043 0.0102299 0.1938478 -0.354942 -0.0950816 0.324142 -0.30299078 0.3502038 0.688848 0.2819136 0.20438 0.093196 -0.1937012 0.13077854 -0.0214466 -0.0575696 0.0382576 -0.0778902 0.0627788 0.546502 0.180324 -0.347257 -0.1899588 0.1565768 0.2811084 0.343474 0.2642486 0.3043508 -0.1696718 0.11279372 -0.2788 0.0601918 0.15451 -0.0569762 -0.009623 -0.1152482 -0.284386 -0.0805129 0.2972316 0.16136 -0.1372862 -0.00128712 -0.705776 0.271926 -0.2407798 0.284294 0.2027114 0.3445044 -0.0193446 0.54616 -0.051518 -0.190685 0.1204158 0.150362 0.3248072 -0.29269 -0.19689 -0.0718234 -0.15762958 0.237845 0.4072626 0.2974294 0.3429572 0.244248 -0.0901316 0.2611824 -0.369516 0.0092564 0.0322648 0.1990481 -0.0906852 -0.2968956 0.08665 -0.298246 0.0972404 -0.169212 -0.523878 0.2320716 -0.203906 0.174624 -0.0666978 0.0365084 -0.012812 -0.106167 -0.135778 0.044786 0.248906 0.001302 -0.3131096 0.254344 0.3160172 -0.219026 0.2377238 0.215957 0.172882 0.2879136 -0.0177582 -0.0753438 -0.4089106 0.473172 -0.009589 -0.30546584 -0.0865594 0.2412588 -0.0419738 0.0292006 0.420202 -0.309442 0.17338054 -0.2718164 -0.4063684 0.1052618 0.1791928 -0.116382 0.489838 -0.2534024 -0.0795458 -0.2783276 -0.2036248 0.164412 -0.0086268 -0.0888924
Cause_proliferation_in_number 0.1862955 -0.120532 0.66557 -0.690985 -0.7053 0.26181 0.0750915 -0.3339 0.167165 -1.068645 -0.04855 0.0105685 -0.07098 -0.125427 0.0208745 -0.0009095 -0.36251 0.0420285 -0.315862 -0.1172 -0.58687 -0.231855 -0.1338465 -0.0987705 0.295526 0.45367 -0.10113 -0.183211 0.026885 0.277 0.164385 -0.212468 -0.14208 -0.72564 0.37033 0.195335 0.031755 -0.581335 -0.21286 -0.015915 0.3465295 0.16319 -0.298285 0.096436 -0.22942 -0.29766 0.019435 -0.022045 0.21248 0.01691 0.39556 -0.084933 0.09934 -0.162803 -0.14169 -0.08973 -0.30398 0.13436 -0.133607 0.191095 0.632765 -0.0998895 0.1987805 0.201265 -0.42924 0.307447 0.27424 1.02302 -0.1072125 -0.03477 0.072028 0.091335 -0.084089 -0.071393 0.080905 -0.07173 0.04443955 -0.2476 -0.40579 -0.03659 -0.254495 -0.48076 0.386195 -0.20209 0.2726875 -0.19783 -0.417555 0.48679 0.189194 0.14791 -0.30941 0.316363 -0.0576725 0.40755 -0.296445 -0.23587 -0.1385363 0.055045 0.561735 -0.330455 -0.021565 -0.02014 0.376765 -0.264385 -0.93772 -0.1084185 -0.243485 0.120155 0.10617 -0.214715 0.2300565 0.1039855 -0.2282455 0.027825 0.164275 0.2304315 0.17321 -0.44546 -0.30933 0.353066 0.343995 -0.1687025 0.52714 0.100435 -0.0954545 -0.060152 -0.124264 -0.36856 -0.68342 -0.306405 0.6458 -0.189295 0.260315 -0.6404045 0.55579 -0.3210331 0.414125 -0.211685 -0.41499 0.395705 -0.05625 -0.136715 0.241537 -0.703225 0.3106085 0.34914 -0.3984 -0.28007 0.557385 0.125675 -0.580115 -0.20451 -0.599545 -0.1162745 -0.498225 -0.15962065 0.26658 0.55508 -0.196428 -0.169222 0.01253 0.1068255 -0.280372 0.244567 -0.02897 0.128149 0.132878 0.069026 -0.045872 0.095255 0.480415 0.22726 0.305541 -0.346665 -0.69236 -0.636145 -0.082966 0.1722536 0.07436 -0.605605 -0.214196 0.06622 -0.3711015 -0.562915 -0.2305205 0.087368 -0.030032 0.12209 -0.1799285 -0.245435 -0.074905 -0.19087 0.285449 0.025405 0.50379 -0.02009 -0.152939 -0.2755262 0.269765 -0.048755 -0.247235 0.185456 0.0042195 0.1402305 0.312023 -0.31264 -0.133525 0.0204855 0.31257 -0.014445 -0.15392 -0.290756 0.0065015 0.283922 -0.39796 0.201675 -0.070515 -0.033705 -0.44142 0.599235 -0.455435 0.05581 -0.47262 -0.331535 0.175425 -0.2262585 0.298665 0.280705 -0.02215 0.504975 0.32431 0.10978 0.318465 -0.2547705 -0.690205 -0.2368185 0.0479115 0.24094 -0.075615 0.3073305 -0.327482 -0.030195 0.1335835 -0.0572965 -0.101205 -0.1918 0.07855295 -0.26778 -0.55408 -0.048788 -0.3060855 0.366415 -0.2027 -0.286935 -0.075525 0.185016 -0.315252 -0.055585 -0.1703459 0.40678 0.1271015 -0.248703 0.231705 0.305415 0.026985 -0.000175 -0.44017855 0.638825 0.304345 -0.0371765 -0.11424 -0.219 -0.387837 0.02859 -0.02858 0.13528 -0.577615 0.1110655 0.11125 0.50313 0.1887 -0.27273945 -0.19144 0.037944 0.219455 -0.14328 -0.025935 -0.24321 0.357855 -0.04407 -0.11694 0.2744085 0.1353905 0.310352 0.115255 0.28607 0.640495 -0.0509 0.152852 -0.45013
Destroying 0.185425182353 0.0387147058824 -0.146015352941 -0.163175470588 -0.118426176471 0.177503541176 0.136867941176 -0.0112661176471 0.0264058235294 -0.224239176471 0.00753988235294 0.0546394117647 0.0222151764706 -0.142480535294 0.00780164705882 0.00418688235294 0.150306523529 -0.0547689323529 -0.175155294118 0.254127764706 0.273752294118 -0.0285630588235 0.264450117647 -0.0758061176471 -0.0556997058824 -0.130031058824 -0.100399270588 0.118297694118 -0.0568701352941 0.124475963529 -0.0412693176471 0.115327 -0.107972 -0.160274823529 0.5628 0.144065705882 -0.0606093835294 -0.0158391176471 0.189102964706 -0.0221046470588 0.00267452941176 0.267448 -0.0988975294118 -0.156991511765 -0.0313415294118 0.0145334705882 0.0713990588235 -0.0620836470588 0.206123662941 -0.0140381058824 0.118436588235 0.0577764705882 -0.1096444 -0.339918176471 -0.0551383529412 0.0247340588235 -0.00690247058824 -0.000714470588235 -0.104552705882 0.228014 -0.189818058824 -0.0367990764706 -0.205892823529 -0.00381511764706 0.0206521176471 0.358371823529 0.148156235294 0.211887764706 0.211685764706 0.174083647059 0.249118735294 -0.113898235294 -0.03216654 -0.0259144705882 0.294381705882 0.1748307 -0.216263 -0.0574381176471 -0.160232823529 0.312065411765 -0.163326529412 -0.212343470588 0.0336344705882 -0.00423647058824 -0.0554894035294 0.0516652941176 -0.349536352941 0.143827882353 0.161482705882 0.0296552294118 -0.241875 -0.193487176471 0.429827058824 -0.300631947059 -0.159147588235 -0.152091529412 -0.0165961764706 0.0571403647059 0.252918117647 -0.0425018235294 -0.184651588235 0.239766764706 -0.0543576470588 0.221022411765 -0.0581996470588 -0.0956982882353 0.0867321411765 -0.275995941176 0.317277403529 -0.101747470588 -0.0709688411765 -0.179594411765 -0.072737 -0.293913705882 -0.188128882353 0.289215647059 0.192305541176 0.0156138235294 -0.0551964117647 0.241213294118 0.172814347059 -0.111149882353 -0.160440823529 0.385585117647 -0.0224798470588 -0.0693921882353 -0.114651882353 0.277356688235 -0.126644135294 -0.0706208 0.253139588235 0.237417117647 0.174104882353 -0.223909117647 0.165240470588 0.208411094118 0.0810830588235 -0.0397425882353 0.0525630235294 0.113926764706 0.0268684705882 -0.254702882353 -0.120065705882 0.367019705882 -0.0491354117647 -0.149012 0.193962294118 0.0580655882353 -0.146717764706 -0.150905611765 -0.256583882353 -0.122277740588 -0.454706823529 0.0699799411765 -0.0382554117647 0.130389764706 -0.104181882353 0.0666413529412 -0.180878588235 -0.00934176470588 0.127298294118 0.143402788235 0.0619840764706 0.00718947058824 -0.184497588235 -0.154529705882 0.106970058824 -0.0551245611765 -0.140788147059 -0.287652964706 0.119900735294 -0.00238070588235 0.402851235294 -0.254666176471 0.0255271882353 0.0232257058824 -0.0262684705882 0.182386764706 0.214633823529 -0.133916847059 -0.0634965176471 -0.255668676471 0.0259134529412 0.0112498823529 -0.160907058824 0.203091411765 0.0960517058824 0.0697337058824 0.0464192941176 0.166580005882 -0.105803411765 -0.131612529412 -0.132811176471 -0.199307882353 0.335433776471 0.153507388235 6.30588235294e-05 0.122030094118 0.478780176471 0.138843782353 -0.0916220588235 0.092231 -0.0508486470588 0.246036823529 -0.174416470588 0.142004941176 0.213536882353 -0.138071064706 -0.0368623647059 -0.0900522352941 -0.368788588235 0.155833470588 -0.127431588235 0.0258854117647 -0.157430823529 -0.00119994705882 0.185515705882 -0.0115268823529 0.209553588235 0.398846705882 -0.107523317647 -0.0687686470588 -0.112176670588 -0.150529223529 -0.215197764706 -0.233334947059 0.0247065294118 0.0967031764706 -0.183317764706 -0.153873588235 0.286111117647 0.257341941176 -0.249229776471 0.00751455882353 -0.444929411765 -0.0517906470588 0.188663647059 -0.169828399412 0.306240523529 0.0731743588235 -0.0508802352941 0.138681423529 0.194363470588 -0.0293648823529 -0.204850705882 0.117700582353 0.177617411765 0.0265644705882 0.103490941176 -0.204521194118 0.0892324117647 0.103217294118 -0.221183064706 0.189097805882 0.179233058824 0.00493564705882 0.00429329411765 -0.0442897835294 0.0172104588235 0.0145371176471 0.228952058824 0.181606647059 -0.113594176471 0.182653570588 0.250207352941 0.0678856470588 -0.280705058824 -0.0622013470588 0.254837529412 0.0521543411765 0.120074658824 0.396822235294 0.0475908235294 0.478880647059 -0.0601151764706 -0.125228764706 -0.527013913529 0.155367294118 0.241233229412 -0.226694352941 0.0536485294118 0.102906588235 -0.0304301529412 0.212957705882 0.208608588235 -0.220974411765 0.0222496823529 -0.0678064117647 0.0848642352941 0.0400793676471 -0.187772817647 -0.471091294118 0.0546963529412 0.0899843529412 0.0688271764706 -0.205436588235 0.271242647059 -0.0761587058824 0.189130294118 -0.108359470588
Beyond_compare 0.0618487285714 0.0993791428571 0.0582305714286 0.357201428571 0.114710428571 0.355277142857 0.0292131428571 -0.397897142857 0.0111223714286 0.192555285714 0.144342714286 0.320082428571 -0.225331685714 -0.0267082428571 -0.125601285714 -0.220847285714 0.340460428571 0.214249142857 -0.23425 0.131467214286 0.0140131428571 0.0546537142857 -0.0976127142857 -0.33188 0.544262857143 0.061464 -0.445768857143 0.224464571429 0.191278571429 0.127901142857 -0.0195862857143 -0.319210428571 -0.337881671429 -0.209365714286 0.421002857143 0.0969398571429 -0.296695714286 0.0754998571429 0.0950297285714 -0.0138726428571 -0.0520614285714 0.213362028571 0.142915014286 -0.221258 0.293558571429 0.182149557143 0.275664285714 0.201294571429 0.359686428571 0.093791 0.267341857143 0.0241627142857 -0.007772 0.0912678 0.068936 0.0119897142857 0.0900587142857 0.0767324285714 -0.0210498571429 0.405661571429 -0.0720158571429 0.0518421428571 -0.207466285714 0.128874 0.018457 0.537254285714 -0.123699 -0.124355714286 -0.233531428571 0.268731 -0.272560934286 0.0598515285714 -0.112882571429 -0.33838 0.0336541857143 0.135912657143 -0.487038571429 -0.138732857143 0.022571 0.173658571429 -0.0809329 0.410378285714 -0.20735 0.158126 0.191637142857 0.0309222142857 -0.0418641428571 -0.251378428571 0.103779842857 0.012957 -0.114328571429 -0.150508714286 0.349635714286 0.123096 0.00484568571429 -0.118862714286 0.0774807571429 -0.192742857143 0.098064 0.381390571429 -0.0600901428571 0.341459571429 -0.140691428571 0.249239142857 -0.0788437142857 0.127216714286 0.0599648571429 0.0827912857143 0.132377285714 -0.296770157143 0.146366898571 0.336844571429 0.205334285714 0.0514844285714 0.00919852857143 -0.240088571429 0.211101 0.0327462857143 0.284418942857 0.471531428571 0.0739197142857 0.0377054285714 0.0146367142857 -0.0811558571429 0.0805475714286 -0.211019857143 -0.161930528571 0.350778571429 -0.148314428571 0.268061571429 -0.100225285714 -0.116290428571 0.109992728571 -0.34234 -0.412465857143 0.124058142857 0.0470972428571 0.0775323714286 0.0452804285714 0.385548571429 -0.077761 0.0114748571429 -0.049181 0.266501428571 0.415067714286 -0.274462857143 -0.184219142857 -0.000570571428571 -0.028103 -0.0310061428571 -0.410181428571 -0.212297142857 0.110812857143 -0.362795714286 -0.103192 0.180095428571 0.0952777142857 0.0518701428571 0.0476964285714 -0.081627 -0.0479662857143 -0.0304871428571 -0.0573488571429 0.180753 -0.123383085714 -0.0322026428571 -0.00777042857143 0.084495 0.156616342857 -0.336307771429 -0.0377361428571 0.0545587142857 0.0217542857143 0.035854 -0.0156837142857 -0.168021142857 0.0484308571429 -0.0696618571429 0.0504871428571 -0.299097285714 -0.041587 -0.0789388857143 0.295078571429 0.203608714286 0.049824 -0.0445184971429 0.741164285714 -0.0641455928571 -0.263470428571 0.459533857143 -0.24823 -0.100690085714 -0.0191181142857 -0.0629484285714 0.1401091 -0.145725285714 -0.384631428571 0.133849857143 0.170631142857 0.223645142857 0.0604428571429 0.106736428571 0.166410285714 -0.0527775714286 -0.230497428571 0.110722714286 -0.180134 0.0708221428571 -0.209698471429 -0.0148344285714 0.0463908571429 -0.126582428571 -0.0491218285714 -0.174159714286 -0.00248642857143 -0.0273255714286 -0.433992714286 -0.0442120142857 -0.292455142857 0.00395771428571 -0.528014285714 -0.0730233428571 0.0791941428571 -0.0433412857143 -0.150286285714 -0.204805 -0.0296655428571 0.172767142857 -0.145198857143 -0.0930865714286 -0.0116752857143 -0.0425244285714 0.0516319571429 -0.0578443842857 -0.354044428571 0.0680255714286 0.369996142857 -0.179290857143 -0.531212857143 -0.0307527142857 -0.000316571428571 0.175309857143 -0.107509285714 0.377731428571 0.202322428571 -0.101338 -0.356107925714 0.390048571429 0.0868458571429 -0.203921428571 0.157684342857 -0.200365142857 -0.0831515714286 -0.330395 -0.171252428571 -0.0752067714286 -0.202278571429 0.117611571429 -0.103087428571 -0.197104177143 0.0484211428571 -0.0397221428571 0.0592317142857 0.154325 -0.332265857143 0.274975 0.0137704285714 0.191568714286 -0.039949 -0.321318857143 -0.192453285714 0.240078571429 -0.0830938571429 -0.150446857143 0.217605928571 -0.262052571429 0.461208571429 -0.147149 -0.123968714286 -0.382014285714 0.192868571429 0.00725214285714 -0.163922857143 0.201875857143 0.365438142857 -0.298386857143 -0.173811585714 -0.07206 0.0796974285714 -0.0734951571429 -0.322235942857 -0.028827 -0.104180714286 -0.000201857142857 -0.26560486 -0.0363701428571 0.119572857143 0.262229714286 -0.201114142857 -0.148702285714
Theft 0.15981205 -0.139834588235 -0.0406685411765 0.00566661470588 0.08296 0.0506529911765 0.201539252941 -0.129467 -0.222793441176 0.141101652941 -0.0497507647059 -0.0437560617647 -0.0538856882353 -0.0779752647059 -0.254524029412 -0.166832405882 -0.0261494147059 -0.181782073529 0.0355524411765 0.0397569382353 0.122618455 -0.0485165 -0.0880896647059 -0.383743235294 0.171275470588 -0.343052441176 0.0116592976471 0.308056117647 0.211215647059 0.0779010294118 -0.324146088235 -0.0887513823529 0.0490289147059 -0.155113670588 0.145579352941 -0.159411764706 -0.198686470588 0.103448852941 -0.108382705882 0.0431292764706 -0.0714365235294 -0.0084255 0.0718753235294 -0.0947574911765 0.0779214382353 0.120605123529 0.0489899117647 -0.109420041176 -0.221686470588 0.0667558823529 -0.0402651764706 -0.242757852941 0.169972785294 0.00811347058824 -0.138385820588 -0.14661155 -0.188142 -0.0132552088235 0.00791585294118 -0.182742644118 -0.0801116176471 0.229544076471 -0.172873852941 0.212722658824 -0.0974180302941 0.0895183235294 -0.21094405 -0.184565247059 0.248908511765 -0.0119412058824 -0.0543591470588 -0.0457137058824 0.268516942941 -0.00389761176471 0.120088235294 0.117678029412 -0.139315017647 -0.127574605882 0.228037397059 0.041779 0.152196514706 0.112761029412 0.130365147059 -0.0720304058824 0.192934714706 -0.128448564706 -0.162528420588 0.12838545 -0.0908448882353 0.132334958824 -0.0420670588235 0.0294475705882 0.0207073579412 -0.06713914 -0.0632514705882 -0.180637029412 0.0720327794118 -0.142908508824 -0.0352875588235 -0.00245952941176 -0.0550403235294 0.138997558824 -0.0428262647059 0.174004902941 0.0536224117647 -0.234870626471 0.0991405764706 -0.108913173529 0.0197392876471 -0.247093773824 -0.07965645 0.0893146117647 -0.0905889705882 -0.0271818735294 0.381331088235 0.417793529412 0.204096485294 0.146821794118 0.0460936735294 0.000909402941176 0.185265 0.0742613823529 -0.146591870588 -0.0732905941176 -0.0711084 -0.0714913647059 0.121772047059 0.145557670588 0.0595824705882 0.156761117647 -0.0578956852941 -0.0507552470588 0.0733798529412 0.131741352941 -0.0442585 0.00563666764706 0.242267647059 0.0984194117647 -0.17368415 0.0848744548529 0.0234075294118 0.0978903176471 0.107507529412 -0.0577056147059 0.0735343235294 -0.159144541176 -0.0429879185882 -0.0171883235294 0.324832823529 0.0314008235294 -0.211057147059 0.242100294118 0.0590100147059 -0.0158527323529 -0.361261035294 -0.0231257617647 0.0600716470588 0.152282558824 -0.159568617647 0.0531990294118 -0.198599617647 0.139998923529 0.0279506882353 0.00305541029412 0.174897976471 -0.0599086529412 0.116795764706 -0.0817175852941 0.151552441176 -0.0596354794118 -0.0670032647059 -0.220354823529 -0.0212521470588 -0.20326975 0.0664929264706 -0.173901447059 0.0515982794118 0.0359704855882 -0.0816532647059 -0.293697941176 0.109294323529 0.0380851764706 -0.0912409470588 0.0930510588235 0.151663676471 0.09613305 0.517375911765 0.0419329291176 0.215815947059 -0.0606347647059 -0.224268176471 -0.0716540529412 -0.0122645 -0.0748147647059 0.220427 -0.0691087176471 -0.302841217647 -0.152352088235 0.0592169411765 -0.0343234820588 -0.0993790588235 0.171636088235 0.0236125470588 -0.0189164705882 -0.000478117647059 -0.143257441176 0.0709430617647 -0.0328330617647 -0.0326387058824 -0.118248294118 0.0279812647059 -0.00470255882353 -0.148972529412 0.258976852941 -0.123749264706 -0.0676607088235 0.0358950294118 0.148000970588 -0.150062323529 0.356871942059 -0.514368147059 0.165328908824 0.235753470588 -0.170287647059 -0.00835910588235 -0.130028885294 -0.213301923529 0.0218979147059 0.0728331205882 0.191228911765 0.110229117647 -0.0547279794118 -0.218981352941 -0.00293640294118 -0.116700382353 0.107822567647 0.0108302088235 0.0891572058824 -0.0972283352941 -0.145692794118 -0.0946093764706 -0.0559353029412 -0.224048823529 -0.0489213529412 0.201662382353 -0.151987088235 0.194297176471 0.190071882353 0.0234177058824 -0.0770374411765 -0.0123909264706 -0.0120806176471 0.153875497059 -0.106003882353 0.1147685 0.00105645294118 -0.0684708235294 0.102084544118 0.00193476470588 -0.0651930970588 -0.00645426470588 -0.02535 -0.100447717647 0.119030764706 0.0424637382353 0.0619436 -0.0263331205882 -0.144608411765 0.0861882147059 0.157274976471 0.376476323529 0.144806564706 0.192703088235 0.0932748647059 0.0229878823529 -0.181145232353 0.00489017647059 -0.0239050955882 -0.202178941176 -0.1346085 0.0118131176471 0.191426067647 0.135591317647 0.223985808824 -0.0177501676471 0.0771537058824 0.125609529412 -0.0268058529412 -0.0186295 -0.0391965147059 -0.0632869705882 -0.155334235294 0.00285276470588 0.153978764706 0.0712004411765 -0.360426882353 -0.00953167352941 0.110590411765 0.167805267647 0.0140521764706
Resurrection -0.0340833725 -0.139531625 0.0349975 -0.08532875 -0.06964825 -0.030683 0.10294775 0.077245 0.039691 -0.504235 0.01494 0.10234625 0.23282675 -0.00634 0.124315 -0.2510543 0.3349685 -0.114882 -0.25054075 0.01724875 -0.2584 0.015498575 0.11642025 0.268299 0.2687325 -0.00504275 0.1553025 0.04559575 0.094436025 0.12577625 0.11113175 0.064785 -0.15242 -0.257409425 -0.3213175 0.01157225 0.035347 0.1930515 0.11851725 -0.09205475 0.16677925 -0.0572655 -0.19558 0.027636375 0.0318425 -0.21040125 -0.14354475 0.1995125 -0.2962775 0.1144095 -0.0102735 -0.121612675 -0.193405 0.07932625 0.128585 0.04789535 0.022058 0.38934175 -0.03812575 0.001157 -0.014626 0.17125725 0.1805875 0.0838975 -0.06241775 -0.20868 0.0601041 0.04713 0.51317 0.342163 -0.1575775 0.005211625 -0.03279855 -0.007998575 0.332385 -0.08536875 -0.0056945 -0.27568 0.12911425 0.1801575 -0.1554345 0.213465 -0.12788 0.3982925 -0.014731 0.30495325 -0.1845295 0.374755 0.044838825 0.170614 0.01010775 -0.2543225 0.05913675 -0.3145175 -0.39207375 -0.33434075 -0.03554725 0.2268175 0.17790825 -0.1852745 -0.1751975 0.10403075 -0.1611825 0.34884 0.179111 -0.2098915 0.12725 -0.28877575 -0.13797725 -0.217905 0.14481 0.1053085 -0.048416 -0.13572275 0.3742225 -0.046235 0.01454575 -0.22679 0.003375 -0.37578 0.04382455 -0.235404 -0.22848925 0.308705 0.00081175 0.09053675 -0.05047925 0.289048 0.01687075 0.1484 0.072414 0.5065375 0.109615 -0.07025225 0.2264275 -0.217841 0.24655 -0.180694 -0.1319795 0.070085775 0.0998178 -0.07195725 -0.0626435 0.27002 -0.0326025 -0.1188125 -0.2556675 0.154054 -0.07623 -0.13382 -0.13714 -0.050628225 -0.1936365 0.05722125 0.3193375 0.2005875 0.01333325 -0.08553925 0.02060775 -0.090555 0.1651775 -0.172793075 0.0856505 0.265387 0.042632 0.0480725 0.0974762 -0.0160625 -0.27659 0.16809375 0.033385 -0.01513575 -0.21968 -0.08315675 0.204862 0.10648 -0.08020425 -0.22350175 0.042706 0.2828625 -0.07749 0.02389 0.2859975 0.00433975 0.205405 0.3207 -0.02095 0.125385 -0.16667575 0.07198575 -0.239035 0.13831525 0.04037425 -0.03683 0.025013 0.25107825 0.0342415 0.0342205 0.0866675 0.2631525 0.684285 0.11494625 0.007895 0.0647229 -0.2651025 -0.11202 -0.0278875 0.10303625 -0.1244 -0.13648 -0.214259 0.083308575 -0.14577 -0.082845 -0.24201 0.16940225 0.0826005 0.3377975 0.07257675 0.2474475 0.1276325 -0.0126333 0.0037171 -0.073827 -0.1013875 -0.2594225 -0.114155 0.1696075 0.189985 -0.04765025 -0.2832625 0.0015565 0.04747125 -0.01223275 -0.13810465 0.069709925 0.360925 -0.084267 -0.040986 -0.03624 -0.05416075 -0.4572 -0.07522 0.004619425 -0.5242375 0.1684275 0.482115 -0.057595 -0.153118 -0.0222495 -0.14783025 0.22628075 0.1926275 0.23821675 -0.0918025 -0.0236185 0.11129575 -0.059203 0.2019075 0.317615 0.1324275 -0.16344375 0.136931 0.0611755 0.05196025 0.138355 0.01156675 -0.1142025 -0.01045775 -0.18549425 -0.14587 0.08990615 0.1929625 0.07902615 0.3370425 -0.02949825 -1.0442825 -0.14634275 0.549115 -0.0765565 -0.059896575 0.00398375 -0.11879225 0.162608 -0.08203475 -0.1583185 -0.0543925 0.1118475 -0.24693175 0.162268625 -0.18255325 -0.075449775 0.253677 0.0974445 0.1894905 -0.1676775 0.098785 -0.2104885 -0.0330615 0.1267795
Fluidic_motion 0.13207728 0.06297556 0.04200516 0.04195452 -0.03425192 0.16447472 0.08133676 -0.06009896 0.35717608 -0.434847624 -0.07536784 0.05044936 -0.0195272 -0.37182292 0.08196908 0.243942136 -0.145876692 0.15295868 0.27937332 0.42787444 -0.1488462784 0.0345998656 -0.007341608 0.07195924 0.01395208 -0.11600838 0.237013024 0.1690698 -0.202018288 -0.1615338848 0.0224633804 0.04632352 0.11082388 -0.01546556 0.12053132 0.1290144576 -0.337739052 0.01385684 0.14888464 0.2011002704 -0.0611102 0.182663304 0.18266068 -0.05893112 0.10713656 -0.04073192 0.15870344 0.11187476 0.03972268 0.05901288 0.00506168 0.0679244 0.004977612 -0.3113462 -0.133913556 0.18751232 0.04052712 0.05178368 0.09194268 0.26440884 -0.038718544 -0.12561762 0.18615556 -0.01132388 0.106235496 0.14366032 0.050628532 0.19819728 0.05356792 0.0641111 0.190464904 -0.17347272 0.0566692004 0.13968404 0.083266344 -0.12423756 0.0454398 -0.10362384 -0.2223158 -0.311728984 -0.07669372 -0.29486348 0.056467772 0.04240752 0.22688512 0.058867212 -0.09294232 -0.080793736 0.22074328 -0.2955466 0.003647908 0.12069032 0.01619652 -0.18867624 -0.1137568 0.01854732 0.019712048 0.09334024 0.15559932 0.031397828 -0.02812548 0.24921924 -0.3252256 -0.01794248 0.174396268 -0.104794852 0.084836788 -0.0144686 -0.1556684 0.13436956 -0.247834716 -0.0913812 -0.106212956 -0.060451616 -0.0249838 0.25580056 -0.1451524 0.1120504 -0.1305396 -0.017484228 0.0845456168 -0.322245312 0.032781 0.29385332 0.18298468 -0.069385408 0.05145376 0.0904738 0.0455813 0.1075196 -0.05200432 0.24547868 0.14045216 0.074058664 0.12899316 0.151970304 0.07063354 0.164359082 -0.13052996 -0.02815144 0.2090816 -0.2893848 -0.048947448 0.043422768 -0.08788508 -0.05068184 0.015899372 0.13859744 0.10323884 0.2963058 -0.2016474 0.05224564 -0.10785584 -0.06642776 0.16608056 0.057999284 0.26454748 -0.25283496 0.13779576 0.035838984 -0.21292696 -0.223473724 0.05201796 -0.1934468 0.00457144 -0.13078828 0.02337748 0.1356282 -0.114370688 -0.09070536 0.114460844 0.2713632 0.076671856 -0.07504788 -0.23242604 -0.118923248 -0.06686812 0.17868504 0.3209296 -0.153739184 -0.00643868 -0.01727292 0.1068014 0.15804976 0.05586388 -0.095820024 0.38697064 -0.15975528 -0.0194442 -0.33472208 0.19777136 0.146639708 -0.01431472 -0.11697316 0.17174148 -0.07394576 -0.018726704 0.03547328 0.060852 -0.07740524 0.08440756 0.09693636 0.19077672 0.016483348 0.13622116 0.10562772 -0.18862888 0.166523252 -0.149860188 0.09293328 -0.0920792 -0.061227 0.04237496 -0.00701212 -0.1647582 0.0185112 0.13738336 -0.0491872 0.02198148 0.085886432 -0.01124024 0.228902796 -0.16070356 -0.02733384 0.1230954 -0.18641488 -0.18225104 0.06492316 0.19518432 -0.0469721 0.01763604 -0.188614356 -0.10420424 -0.194659532 0.043371088 0.096486792 0.11534472 -0.24205724 -0.019988032 -0.239540992 0.01485448 -0.046928564 -0.235241172 0.04848366408 -0.320685336 -0.249586732 0.29227844 0.0287222316 -0.216893832 -0.04158428 -0.03983968 -0.276367828 0.22640884 -0.151923244 0.022575832 -0.0825934 -0.0262886 0.048807936 -0.05926484 0.193568476 0.177025544 -0.1718518 0.0410614 -0.099738592 0.05056418 -0.14231928 -0.033875084 -0.151896352 0.004874884 0.01629776 0.1733559 -0.11295692 -0.08243948 0.09169736 0.006771468 -0.07083792 -0.32675986 -0.05631812 -0.214258 -0.1292102 -0.20339704 0.21123888 0.29644888 0.24949884 0.056488744 -0.17198328 0.22221444 -0.1545685848 -0.04265316 0.05999356 -0.1212406 0.17242176 0.26036448 0.17512688 0.24473384 -0.2191956656 0.08002528 -0.031714172 0.01636616 0.15947316
